svm_type c_svc
kernel_type rbf
gamma 0.05
nr_class 26
total_sv 7051
rho -1.271687676538773 0.2858474948332782 -1.2429489207855862 1.08603892391023 0.11273181309138672 -0.568145951936362 1.6128925637007077 0.33943099608184896 -0.8831621788144078 4.696115689629352 0.014573486844598494 -0.5301130357143561 1.495473548441705 2.1084194872303654 0.2755035323393341 0.2826441461406229 -0.1513103727378798 0.2016750931543869 0.433917541378318 0.059680011648138194 0.5355420449417734 -1.1622467151367508 -0.5871679656604109 -0.8338149719648981 -0.5975105712604755 0.007396592453784142 -1.9287757868953423 -2.3993902545735972 1.0509396989743085 -1.4625268650047436 -1.2605726621689652 -2.69176127965676 0.08444702639991665 2.210864060719878 -2.480602200589688 -1.378830764081216 1.389672955875849 0.8861819704155439 -0.5035174087764418 -1.5242762129730258 -2.2973193592145367 0.35057556922541144 0.35208583518766134 -0.6368953586778101 -1.2614075135626575 0.2564092079150126 0.41661516562136597 -2.375827111054666 -0.6168836686156265 0.06570096238043074 -1.09437754603052 -1.7086897485188872 -2.381236617427699 -3.086046103243494 -1.8525019557598554 -0.5308204630674002 1.276129217052184 -2.876676542626672 0.0412532663127477 -0.24844951902725684 -0.4964593862208876 -2.1404306155065673 -1.30738228417754 -3.870046971933087 0.4651277498960804 -1.9452764375355929 -4.180795025464273 -4.062276515041143 -0.8460452571522556 -1.2829117579211762 -2.8846411138441463 -1.4297366520355352 1.7907663568972572 0.7140763925638466 0.20829123094329363 0.4684004649499808 -5.001169401160189 1.64638170607361 2.440296463392683 0.1707172321873055 -0.47847098082500944 2.9519927012763567 1.6557275759072918 -0.20316987349197446 0.9439909793363831 0.8028043029141904 0.12706998260722 1.011221765211016 0.5026920851315144 -0.4362891821546471 0.9130879967078634 1.6351139725591477 0.031850956415424986 -0.2779545956273329 -0.2619574567821586 -0.7497250425351735 -5.256526796548987 -4.715300999326519 -0.4902819963930853 0.6508899704568045 0.9642388766508606 -0.9402568673290883 -0.45235263901162714 1.2334461682334312 -1.4117582484404092 -1.1128256941621057 -3.277209525132056 0.6300637213755713 0.4376148230921641 -1.9615788168395378 -3.246322926275855 -0.8340488809950013 -0.46893552590756127 -0.5829206037504094 -2.217881165851162 -1.7482295214240369 -1.4686895496137378 -0.777501853446133 0.10056168591702523 1.3338535854030429 -1.5536671639951458 0.11162667406811518 0.9006251096103384 -2.417610589987399 -0.5139790543300916 0.747359300642253 -0.9113252102641829 1.2124484409686005 -0.14739861740572888 -2.4066044888750167 -3.910412100099913 -0.3364560015997582 -0.486395741097904 -1.8456314242532452 0.2825907937388031 -2.1520074765809376 -0.6818639044923428 2.1697695348153534 1.1751961804346478 1.2417198729522276 0.36978746474374785 1.6146074190960296 -1.6293690326647292 1.1443778096259059 0.8862580338618945 -3.2915150097798014 1.5504346818494308 1.4415306757791713 -2.952689775458428 -4.144430300246034 -0.09250302395766119 1.0399173401054125 -0.2869380395931256 1.6922886480906794 -0.9239908687310411 0.1549187004817273 2.0110750594163918 2.0414743418744234 1.8170829987297565 0.994663042460664 -0.5632881202527718 -0.516436754860022 -0.3104830872678138 -1.418437730355815 0.7684049537520548 1.141421861320346 -1.6268158529357157 -10.511463458382673 -2.270943281423519 0.6178775715562853 -0.5728211251949514 -1.2237998440902844 1.9453233819919156 1.9404848095422484 -0.9973002964961999 0.01979480050785672 2.1628538472839054 2.23815833980139 0.09253186482060795 0.3858406952605313 -2.5480260048103083 -0.463378282121976 2.07236518132141 -2.0124557592241756 -0.5194663924553485 0.20840668046433203 0.3830629489870963 -2.6516868195054273 -0.3453964214362429 2.450585929212176 -0.9852819737883493 0.5855733168829328 1.1452718109829616 -1.282109325022799 -0.17217315488357457 -0.23236314932723465 -2.0774595384899603 -0.8241609437636193 -0.23087231496156102 -2.231845760015411 -3.0180718339346257 0.33759897419115514 -0.5321857660891273 -1.2288833554558987 0.11032747942602084 -1.9761967158389515 -3.4641837155553032 0.12847379572994483 -0.7303107112107001 -1.166212186426278 -0.6583044212590704 -1.7146253071709334 -0.7411069494352945 -1.2143540925076595 -2.2861681192039263 -1.0036776343425842 -1.0419612746701334 -3.8095299069597237 -3.2337511527443157 -3.157453188754322 0.31925317927622254 0.14275924828993503 3.5117050453664382 -0.3896965389584699 0.07873135209946883 -1.7074740940275248 1.6868825819977162 0.976569983524545 -1.939677207397088 0.21632836672514247 -0.39307906584707797 -0.47634700924885837 -2.3704103858132437 0.43477283249124943 1.1260682768308967 1.0506533365008615 0.6214482323562742 0.060609257009977005 -0.4290783960980805 1.1817518537693006 -0.46552894035750475 0.37087972211485437 0.023000644875437612 -0.4524126466116406 -1.997923692312413 -0.3094543346788065 -0.7340040988017568 -0.4658874645679797 -0.8862427096436608 -0.6621034232731141 -1.2465461124330952 -0.20012516902070476 -0.4367872355637224 -1.2032534941178838 -2.6964412924372274 -3.3710058159211567 -1.0225399793964096 -1.0164316291349007 -1.882044834166736 -0.7666256313173707 -0.18096854941912907 -3.0708985460647424 0.449703512037473 0.6996480270357649 -2.208626126764919 -0.1122873688822467 -1.451875956987867 -2.6392470197209725 -5.1428851447924036 -2.4572734441752635 -0.42443526972592555 -0.712824756327136 0.9075604251542375 -0.5414350049434526 -1.1291407580910864 -1.9785717948778525 -0.6074449050006147 0.42488895606703314 -1.2105036021570181 -0.6233702691371424 0.1315386039352472 0.42264406706258884 -0.4133985412957757 -0.7297431790292087 -3.5738181119902253 -2.063871288928912 -0.28326084624225845 -0.3259308926479126 -0.6020861717441983 1.6138241150233401 2.447047886450795 1.729391620108371 -0.17839373741981446 0.8623040232694585 -0.5780455913807817 0.6137030868110547 1.019733839079061 1.5651190278031837 -1.1970482520117267 -1.7119647976242547 -0.021398747685819834 -1.4442116017292217 -0.6633850280824126 -0.37051152929649106 -1.9607930731567038 -3.4137456293948625 -0.47647744556580096 0.6288565208857019 -2.0271996974115174 -0.3720819328082966 0.3505176227501114 1.5422839550203593 1.5352734992405204 -0.6038144707706031 2.175055640851409 -0.5505068339016324 0.44677152322068764 -0.8359672434045465 0.9622277129876484 0.23434017332787813 -0.33380101362933134 -0.1670296003293116 -2.2899973834623917 -1.3233996854708574 0.018609648576840287
label 22 12 9 3 11 10 4 8 7 1 25 24 20 13 17 21 14 18 26 19 2 15 23 6 5 16
nr_sv 290 175 204 234 315 220 293 342 368 151 329 338 276 183 296 238 284 305 230 366 324 337 156 256 322 219
SV
0.0 0.0 0.0 0.0 0.0 0.0 0.0 0.0 0.0 0.0 0.0 0.0 0.0 0.0 0.0 0.0 0.0 0.0 0.0 0.0 0.0 5.0 0.0 0.0 0.0 1:-0.466667 2:-0.0666667 3:-0.466667 4:-0.333333 5:-0.733333 6:-0.6 7:0.6 8:-0.466667 9:-0.6 10:0.466667 11:0.466667 12:-0.0666667 13:-0.6 14:0.333333 15:-0.866667 16:-0.0666667 
0.0 0.0 0.0 0.0 0.0 0.0 0.0 0.0 0.0 5.0 0.0 0.0 0.0 0.0 0.0 0.0 0.0 0.0 0.0 0.0 0.0 0.0 0.0 0.0 0.0 1:-0.6 2:-0.2 3:-0.466667 4:-0.466667 5:-0.733333 6:0.0666667 7:0.2 8:-0.466667 9:-0.733333 10:-0.0666667 11:0.6 12:0.0666667 13:-0.733333 14:0.333333 15:-1.0 16:0.0666667 
4.277415711350728 0.0 0.0 5.0 0.0 2.0925864571915946 5.0 5.0 0.0 3.0894186156768306 0.0 5.0 5.0 3.8369097626235713 5.0 5.0 5.0 0.0 0.0 5.0 5.0 5.0 0.0 5.0 5.0 1:0.0666667 2:0.2 3:0.333333 4:0.0666667 5:0.6 6:-0.0666667 7:-0.2 8:-0.333333 9:-0.333333 10:-0.0666667 11:-0.2 12:0.0666667 13:-0.0666667 14:0.333333 15:-0.2 16:0.2 
0.0 0.0 0.0 0.0 0.0 0.0 5.0 0.0 5.0 5.0 0.0 5.0 5.0 0.0 5.0 5.0 5.0 0.0 0.0 5.0 0.0 5.0 4.871277001977299 3.653927067693409 5.0 1:-0.0666667 2:0.0666667 3:0.2 4:-0.0666667 5:0.333333 6:0.0666667 7:-0.0666667 8:-0.466667 9:-0.333333 10:-0.0666667 11:-0.2 12:0.0666667 13:0.0666667 14:0.333333 15:0.2 16:-0.466667 
0.0 0.0 0.0 0.0 0.0 0.0 0.0 0.0 0.0 5.0 0.0 0.0 0.0 0.0 0.0 0.0 0.0 0.0 0.0 0.0 0.0 0.0 0.0 0.0 0.0 1:-0.733333 2:-0.6 3:-0.6 4:-0.866667 5:-0.866667 6:-0.466667 7:0.6 8:-0.6 9:-0.733333 10:0.333333 11:0.466667 12:-0.0666667 13:-0.733333 14:0.466667 15:-0.866667 16:-0.0666667 
0.0 0.0 0.0 0.0 0.0 0.0 0.0 0.0 0.0 5.0 0.0 0.0 0.0 0.0 0.0 0.0 0.0 0.0 0.0 0.0 0.0 5.0 0.0 0.0 0.0 1:-0.733333 2:-0.6 3:-0.6 4:-0.733333 5:-0.866667 6:-0.333333 7:0.6 8:-0.733333 9:-0.733333 10:0.0666667 11:0.333333 12:-0.0666667 13:-0.733333 14:0.466667 15:-1.0 16:0.0666667 
0.0 0.0 0.0 0.0 0.0 0.0 0.0 0.0 0.0 5.0 0.0 0.0 0.0 0.0 0.0 0.0 0.0 0.0 0.0 0.0 0.0 0.0 0.0 0.0 0.0 1:-0.6 2:-0.0666667 3:-0.466667 4:-0.333333 5:-0.6 6:-0.0666667 7:0.466667 8:-0.866667 9:-0.733333 10:-0.2 11:0.333333 12:0.0666667 13:-0.6 14:0.6 15:-0.866667 16:0.0666667 
0.0 0.0 0.0 0.0 0.0 0.0 0.0 0.0 0.0 0.0 0.0 5.0 2.672618792139313 0.0 0.0 5.0 0.0 0.0 0.0 0.0 0.0 0.9410787339760547 0.0 0.0 0.0 1:-0.733333 2:-0.6 3:-0.6 4:-0.733333 5:-0.866667 6:-0.333333 7:0.6 8:-0.466667 9:-0.6 10:0.333333 11:0.466667 12:-0.0666667 13:-0.733333 14:0.333333 15:-1.0 16:0.0666667 
0.0 0.0 0.0 0.0 0.0 0.0 0.0 0.0 0.0 5.0 0.0 0.0 0.0 0.0 0.0 0.0 0.0 0.0 0.0 0.0 0.0 0.0 0.0 0.0 0.0 1:-0.6 2:0.0666667 3:-0.466667 4:-0.2 5:-0.733333 6:-0.0666667 7:0.2 8:-0.466667 9:-0.733333 10:0.0666667 11:0.6 12:0.0666667 13:-0.733333 14:0.333333 15:-1.0 16:0.0666667 
0.0 0.0 0.0 0.0 0.0 0.0 0.0 0.0 0.0 5.0 0.0 0.0 0.0 0.0 0.0 0.0 0.0 0.0 0.0 0.0 0.0 0.0 0.0 0.0 0.0 1:-0.733333 2:-0.6 3:-0.466667 4:-0.333333 5:-0.866667 6:-0.0666667 7:0.0666667 8:-0.466667 9:-0.733333 10:-0.0666667 11:0.733333 12:0.0666667 13:-0.6 14:0.333333 15:-1.0 16:0.0666667 
0.0 0.4125978166593133 0.0 0.0 0.0 0.0 0.0 0.0 0.0 5.0 0.0 5.0 0.0 0.0 3.2753234086561505 0.0 0.0 0.0 0.0 0.0 0.0 0.0 0.0 0.0 0.0 1:-0.733333 2:-0.2 3:-0.466667 4:-0.466667 5:-0.733333 6:0.2 7:0.466667 8:-0.6 9:-0.466667 10:-0.466667 11:0.466667 12:0.0666667 13:-0.733333 14:0.333333 15:-0.866667 16:0.0666667 
0.0 0.0 0.0 0.0 0.0 0.0 0.0 0.0 0.0 2.536428718268455 0.0 0.0 0.0 0.0 0.0 0.0 0.0 0.0 0.0 0.0 0.0 0.0 0.0 0.0 0.0 1:-0.333333 2:0.0666667 3:-0.333333 4:-0.2 5:-0.733333 6:-0.6 7:0.466667 8:-0.6 9:-0.466667 10:0.333333 11:0.6 12:-0.0666667 13:-0.733333 14:0.333333 15:-0.866667 16:0.0666667 
0.0 0.0 2.0864621217322474 0.0 0.0 0.0 0.0 0.0 0.0 0.0 0.0 0.0 5.0 0.0 5.0 0.0 0.0 0.0 0.0 0.0 0.0 5.0 0.0 0.0 0.0 1:0.333333 2:0.866667 3:0.0666667 4:0.0666667 5:-0.333333 6:0.0666667 7:0.0666667 8:-0.0666667 9:-0.333333 10:-0.2 11:0.333333 12:-0.0666667 13:-0.0666667 14:0.733333 15:-0.6 16:-0.0666667 
0.0 0.0 0.0 0.0 0.0 0.0 0.0 0.0 0.0 5.0 0.0 0.0 0.0 0.0 0.0 0.0 0.0 0.0 0.0 0.0 0.0 0.0 0.0 0.0 0.0 1:-0.6 2:-0.2 3:-0.333333 4:-0.466667 5:-0.733333 6:0.2 7:0.2 8:-0.466667 9:-0.866667 10:-0.2 11:0.6 12:0.0666667 13:-0.733333 14:0.333333 15:-1.0 16:0.0666667 
0.0 0.0 0.0 0.0 0.0 0.0 0.0 0.0 0.0 0.0 0.0 0.0 0.0 0.0 0.0 0.0 0.0 0.0 0.0 0.0 0.0 5.0 0.0 0.0 0.0 1:-0.333333 2:0.2 3:-0.0666667 4:-0.0666667 5:-0.466667 6:-0.0666667 7:0.6 8:-0.733333 9:-0.6 10:-0.333333 11:0.466667 12:0.2 13:-0.466667 14:0.333333 15:-0.733333 16:-0.0666667 
0.0 0.0 0.0 0.0 0.0 0.0 5.0 0.0 0.0 0.0 0.0 0.0 0.0 0.0 2.608763854779412 3.8159342792196247 0.0 0.0 0.0 0.0 0.0 0.0 0.0 0.0 0.0 1:-0.0666667 2:0.2 3:-0.0666667 4:-0.0666667 5:-0.6 6:-0.6 7:0.466667 8:-0.333333 9:-0.333333 10:0.6 11:0.6 12:-0.0666667 13:-0.6 14:0.333333 15:-0.866667 16:0.0666667 
0.0 0.0 0.0 0.0 0.0 0.0 0.0 0.0 0.0 5.0 0.0 0.0 0.0 0.0 0.0 0.0 0.0 0.0 0.0 0.0 0.0 0.0 0.0 0.0 0.0 1:-0.733333 2:-1.0 3:-0.6 4:-0.866667 5:-1.0 6:-0.0666667 7:0.2 8:-0.466667 9:-0.733333 10:-0.0666667 11:0.733333 12:0.0666667 13:-0.733333 14:0.333333 15:-1.0 16:0.0666667 
0.0 0.0 0.0 0.0 0.0 0.0 0.0 0.0 0.0 5.0 0.0 0.0 0.0 0.0 0.0 0.0 0.0 0.0 0.0 0.0 0.0 0.0 0.0 0.0 0.0 1:-0.6 2:-0.0666667 3:-0.333333 4:-0.333333 5:-0.866667 6:0.2 7:0.0666667 8:-0.466667 9:-0.733333 10:-0.2 11:0.866667 12:0.0666667 13:-0.6 14:0.333333 15:-1.0 16:0.0666667 
0.0 0.0 0.0 0.0 0.0 0.0 0.0 0.0 0.0 5.0 0.0 0.0 0.0 0.0 0.0 0.0 0.0 0.0 0.0 0.0 0.0 0.0 0.0 0.0 0.0 1:-0.866667 2:-1.0 3:-0.733333 4:-1.0 5:-1.0 6:0.0666667 7:0.2 8:-0.6 9:-0.866667 10:-0.2 11:0.6 12:0.0666667 13:-0.733333 14:0.466667 15:-1.0 16:0.0666667 
5.0 0.0 0.0 1.5492436024006644 1.6188015243409195 1.212882176957671 5.0 5.0 0.0 0.0 0.0 5.0 0.0 5.0 0.0 0.0 5.0 0.0 5.0 5.0 5.0 0.0 5.0 5.0 5.0 1:-0.2 2:0.2 3:0.0666667 4:0.0666667 5:0.2 6:-0.0666667 7:0.0666667 8:-0.2 9:-0.333333 10:-0.0666667 11:-0.2 12:-0.0666667 13:-0.2 14:0.466667 15:0.0666667 16:0.466667 
0.0 0.0 0.0 0.0 0.0 0.0 0.0 0.0 0.0 5.0 0.0 0.0 0.0 0.0 0.0 0.0 0.0 0.0 0.0 0.0 0.0 0.0 1.1091911121419349 0.0 0.0 1:-0.333333 2:0.2 3:-0.333333 4:-0.0666667 5:-0.6 6:-0.6 7:0.466667 8:-0.733333 9:-0.6 10:0.333333 11:0.466667 12:0.0666667 13:-0.733333 14:0.466667 15:-0.866667 16:0.0666667 
0.0 0.0 0.0 0.0 0.0 0.0 0.0 0.0 0.0 0.0 0.0 0.0 0.0 0.0 0.0 0.0 0.0 0.0 0.0 0.0 0.0 0.17511475302205876 0.0 0.0 0.0 1:-0.2 2:0.0666667 3:-0.2 4:-0.2 5:-0.6 6:-0.6 7:0.6 8:-0.6 9:-0.6 10:0.2 11:0.466667 12:0.0666667 13:-0.6 14:0.466667 15:-0.866667 16:-0.0666667 
0.0 0.0 5.0 5.0 0.0 0.0 0.0 1.8479384907785827 0.0 0.0 0.0 0.0 0.0 0.0 0.0 5.0 4.6469245499004765 0.0 0.0 0.0 5.0 5.0 0.0 0.0 0.0 1:-0.0666667 2:0.6 3:-0.0666667 4:-0.0666667 5:-0.466667 6:-0.0666667 7:0.0666667 8:-0.466667 9:-0.466667 10:-0.0666667 11:-0.0666667 12:-0.2 13:-0.2 14:0.6 15:-0.733333 16:0.2 
0.0 0.0 0.0 0.0 0.0 0.0 0.0 0.0 0.0 5.0 0.0 0.0 0.0 0.0 0.0 0.0 0.0 0.0 0.0 0.0 0.0 0.0 5.0 0.0 5.0 1:-0.466667 2:0.0666667 3:-0.466667 4:-0.2 5:-0.6 6:-0.466667 7:0.466667 8:-0.866667 9:-0.733333 10:0.2 11:0.333333 12:-0.0666667 13:-0.733333 14:0.466667 15:-0.866667 16:-0.0666667 
0.0 0.0 0.0 0.0 0.0 0.0 0.0 0.0 0.0 0.0 0.0 0.0 0.0 0.0 0.0 0.0 0.0 0.0 0.0 0.0 0.0 5.0 0.0 0.0 0.0 1:-0.0666667 2:0.0666667 3:-0.0666667 4:-0.2 5:-0.466667 6:-0.466667 7:0.6 8:-0.866667 9:-0.733333 10:0.2 11:0.333333 12:-0.0666667 13:-0.2 14:0.466667 15:-0.733333 16:-0.0666667 
0.0 0.0 0.0 0.0 0.0 0.0 0.0 0.0 0.0 5.0 0.0 5.0 0.0 0.0 0.0 0.0 0.0 0.0 0.0 0.0 0.0 0.0 0.0 0.0 0.0 1:-0.733333 2:-0.866667 3:-0.466667 4:-0.733333 5:-0.866667 6:-0.2 7:0.6 8:-0.733333 9:-0.6 10:0.0666667 11:0.466667 12:0.0666667 13:-0.733333 14:0.466667 15:-0.866667 16:0.0666667 
0.0 0.0 0.0 0.0 0.0 0.0 0.0 0.0 0.0 0.8811124069979069 0.0 0.0 0.0 0.0 0.0 0.0 0.0 0.0 0.0 0.0 0.0 0.0 0.0 0.0 0.0 1:-0.733333 2:-0.2 3:-0.466667 4:-0.466667 5:-0.733333 6:-0.0666667 7:0.466667 8:-0.6 9:-0.6 10:-0.0666667 11:0.466667 12:0.0666667 13:-0.733333 14:0.333333 15:-0.866667 16:0.0666667 
0.0 0.0 0.0 0.0 0.0 0.0 5.0 0.0 5.0 5.0 0.0 5.0 0.0 0.0 5.0 5.0 0.0 0.0 0.0 0.0 0.0 0.0 0.0 0.0 0.0 1:0.0666667 2:0.333333 3:-0.0666667 4:-0.2 5:-0.6 6:0.0666667 7:0.333333 8:-0.333333 9:-0.333333 10:-0.333333 11:0.333333 12:-0.0666667 13:-0.466667 14:0.466667 15:-0.6 16:-0.333333 
0.0 0.0 0.0 0.0 0.0 0.0 0.0 0.0 0.0 0.0 0.0 0.0 0.0 0.0 0.0 2.426286067179139 0.0 0.0 0.0 0.0 0.0 5.0 0.0 0.0 5.0 1:-0.2 2:0.466667 3:-0.2 4:-0.2 5:-0.6 6:-0.333333 7:0.2 8:-0.466667 9:-0.6 10:0.333333 11:0.0666667 12:-0.333333 13:-0.333333 14:0.6 15:-0.733333 16:-0.0666667 
0.0 0.0 0.0 0.0 0.0 0.0 0.0 0.0 0.0 0.0 0.0 0.0 0.0 0.0 0.0 0.0 0.0 0.0 0.0 0.0 0.0 5.0 0.0 0.0 0.0 1:-0.6 2:-0.333333 3:-0.466667 4:-0.6 5:-0.733333 6:-0.466667 7:0.6 8:-0.733333 9:-0.6 10:0.2 11:0.466667 12:-0.0666667 13:-0.6 14:0.333333 15:-0.866667 16:-0.0666667 
0.0 0.0 0.0 0.0 0.0 0.0 0.0 0.0 0.0 5.0 0.0 0.0 0.0 0.0 0.0 0.0 0.0 0.0 0.0 0.0 0.0 0.0 0.0 0.0 0.0 1:-0.733333 2:0.0666667 3:-0.466667 4:-0.2 5:-0.866667 6:0.0666667 7:0.0666667 8:-0.466667 9:-0.733333 10:-0.0666667 11:0.733333 12:0.0666667 13:-0.6 14:0.333333 15:-1.0 16:0.0666667 
0.0 0.0 0.0 0.0 0.0 0.0 0.0 0.0 0.0 5.0 0.0 0.0 0.0 0.0 0.0 0.0 0.0 0.0 0.0 0.0 0.0 0.0 0.0 0.0 0.0 1:-0.733333 2:-0.6 3:-0.466667 4:-0.466667 5:-0.866667 6:0.2 7:0.0666667 8:-0.466667 9:-0.733333 10:-0.2 11:0.733333 12:0.0666667 13:-0.6 14:0.333333 15:-1.0 16:0.0666667 
0.0 0.0 0.0 0.0 0.0 0.0 0.0 0.0 0.0 5.0 0.0 0.0 0.0 0.0 0.0 0.0 0.0 0.0 0.0 0.0 0.0 0.0 0.0 0.0 0.0 1:-0.6 2:-0.466667 3:-0.333333 4:-0.6 5:-0.733333 6:0.0666667 7:0.6 8:-0.733333 9:-0.6 10:-0.2 11:0.466667 12:0.2 13:-0.733333 14:0.333333 15:-0.866667 16:0.0666667 
0.0 0.0 0.0 0.0 0.0 0.0 0.0 0.0 0.0 0.0 0.0 0.0 0.0 0.0 0.0 0.0 0.0 0.0 2.6192931849660055 0.0 0.0 0.0 0.0 0.0 0.0 1:-0.2 2:0.333333 3:0.0666667 4:-0.0666667 5:-0.333333 6:-0.2 7:0.466667 8:-0.6 9:-0.733333 10:0.0666667 11:0.466667 12:0.0666667 13:-0.6 14:0.333333 15:-0.466667 16:0.0666667 
5.0 5.0 5.0 5.0 5.0 5.0 5.0 5.0 5.0 5.0 5.0 5.0 5.0 5.0 5.0 5.0 5.0 5.0 5.0 5.0 5.0 0.4638137899094754 5.0 5.0 5.0 1:-0.466667 2:-0.2 3:-0.333333 4:-0.333333 5:-0.2 6:0.0666667 7:-0.0666667 8:-0.333333 9:-0.466667 10:-0.0666667 11:-0.2 12:0.2 13:-0.2 14:0.0666667 15:0.0666667 16:-0.466667 
0.0 0.0 0.0 0.0 0.0 0.0 5.0 0.0 0.0 0.0 0.0 0.0 5.0 0.0 0.0 5.0 5.0 0.0 0.0 5.0 0.0 5.0 0.0 0.0 0.0 1:-0.466667 2:0.2 3:-0.2 4:-0.0666667 5:-0.0666667 6:-0.0666667 7:0.0666667 8:-0.6 9:-0.733333 10:-0.0666667 11:0.0666667 12:0.0666667 13:0.0666667 14:0.2 15:-0.2 16:-0.0666667 
5.0 0.0 5.0 5.0 0.0 0.0 5.0 5.0 0.0 0.0 0.0 0.0 0.0 5.0 5.0 0.0 5.0 0.0 0.0 5.0 5.0 5.0 0.0 5.0 5.0 1:-0.6 2:0.0666667 3:-0.333333 4:-0.2 5:-0.2 6:-0.2 7:-0.2 8:-0.333333 9:-0.733333 10:0.0666667 11:0.0666667 12:0.2 13:-0.333333 14:0.2 15:-0.333333 16:0.0666667 
0.0 0.0 0.0 0.0 0.0 0.0 0.0 0.0 0.0 0.8894842004348142 0.0 5.0 0.0 0.0 0.0 0.0 0.0 0.0 0.0 0.0 0.0 0.0 0.0 0.0 0.0 1:-0.466667 2:0.0666667 3:-0.2 4:-0.2 5:-0.6 6:-0.0666667 7:0.466667 8:-0.6 9:-0.466667 10:-0.2 11:0.6 12:0.2 13:-0.733333 14:0.333333 15:-0.866667 16:0.0666667 
0.0 0.0 0.0 0.0 0.0 0.0 1.9735897182480964 5.0 0.0 0.0 0.0 0.0 1.9894072828944962 0.0 0.0 0.0 0.0 0.0 0.0 0.0 5.0 1.24471813593646 0.0 0.0 0.0 1:0.0666667 2:0.333333 3:-0.0666667 4:-0.333333 5:-0.6 6:0.0666667 7:0.0666667 8:-0.0666667 9:-0.333333 10:-0.0666667 11:0.333333 12:-0.2 13:-0.0666667 14:0.6 15:-0.466667 16:0.0666667 
0.0 0.0 0.0 0.0 0.0 0.0 0.0 0.0 0.0 0.0 0.0 0.0 0.0 0.0 0.0 0.0 0.0 0.0 0.0 0.0 0.0 5.0 0.0 0.0 0.0 1:-0.2 2:-0.0666667 3:-0.333333 4:-0.333333 5:-0.6 6:-0.6 7:0.466667 8:-0.733333 9:-0.6 10:0.2 11:0.466667 12:0.0666667 13:-0.6 14:0.466667 15:-0.866667 16:-0.0666667 
0.0 0.0 0.0 0.0 0.0 0.0 0.0 0.0 0.0 0.0 0.0 0.0 0.0 0.0 0.0 0.0 0.0 0.0 0.0 0.0 0.27975909301604107 0.0 5.0 0.0 5.0 1:-0.2 2:0.6 3:-0.2 4:-0.0666667 5:-0.6 6:-0.333333 7:0.466667 8:-0.466667 9:-0.6 10:0.333333 11:0.0666667 12:-0.333333 13:-0.466667 14:0.466667 15:-0.733333 16:0.0666667 
5.0 5.0 5.0 5.0 5.0 5.0 5.0 5.0 0.0 0.0 5.0 5.0 5.0 5.0 5.0 0.8944314997103762 5.0 0.0 5.0 5.0 5.0 0.0 5.0 5.0 5.0 1:-0.333333 2:-0.0666667 3:-0.0666667 4:-0.2 5:-0.0666667 6:-0.2 7:0.2 8:-0.2 9:-0.2 10:0.0666667 11:-0.0666667 12:0.0666667 13:-0.333333 14:0.2 15:-0.2 16:0.466667 
0.0 0.0 0.0 0.0 0.0 0.0 0.0 0.0 0.0 0.0 0.0 0.0 0.0 0.0 5.0 0.0 0.0 0.0 0.0 0.0 0.0 0.0 0.0 0.0 0.0 1:-0.466667 2:0.2 3:-0.2 4:-0.0666667 5:-0.733333 6:0.0666667 7:0.0666667 8:-0.333333 9:-0.6 10:-0.2 11:0.866667 12:0.0666667 13:-0.6 14:0.2 15:-1.0 16:0.0666667 
0.0 0.0 0.0 0.0 0.0 0.0 0.0 0.0 0.0 5.0 0.0 0.0 0.0 0.0 0.0 0.0 0.0 0.0 0.0 0.0 0.0 5.0 0.0 0.0 0.0 1:-0.6 2:-0.733333 3:-0.2 4:-0.466667 5:-0.733333 6:-0.0666667 7:0.6 8:-0.733333 9:-0.6 10:-0.2 11:0.466667 12:0.2 13:-0.466667 14:0.6 15:-0.733333 16:-0.0666667 
0.0 0.0 0.0 0.0 0.0 0.0 0.0 0.0 0.0 5.0 0.0 0.0 0.0 0.0 0.0 0.0 0.0 0.0 0.0 0.0 0.0 0.0 0.0 0.0 0.0 1:-0.733333 2:-0.0666667 3:-0.466667 4:-0.333333 5:-0.733333 6:-0.333333 7:0.466667 8:-0.6 9:-0.6 10:0.2 11:0.466667 12:0.2 13:-0.733333 14:0.466667 15:-0.866667 16:0.0666667 
5.0 3.1948793753152325 5.0 5.0 3.086850630008075 5.0 5.0 5.0 0.0 0.0 5.0 0.0 0.0 5.0 5.0 0.0 5.0 0.0 5.0 5.0 5.0 0.0 5.0 5.0 5.0 1:-0.466667 2:-0.0666667 3:-0.2 4:-0.2 5:-0.0666667 6:-0.2 7:-0.0666667 8:-0.333333 9:-0.466667 10:-0.0666667 11:-0.2 12:0.0666667 13:-0.2 14:0.2 15:-0.0666667 16:0.333333 
0.0 0.0 0.0 0.0 0.0 0.0 0.0 0.0 0.0 5.0 0.0 0.0 0.0 0.0 0.0 0.0 0.0 0.0 0.0 0.0 0.0 0.0 0.0 0.0 0.0 1:-0.6 2:0.2 3:-0.333333 4:-0.0666667 5:-0.6 6:-0.0666667 7:0.466667 8:-0.733333 9:-0.6 10:-0.2 11:0.466667 12:0.2 13:-0.733333 14:0.333333 15:-0.866667 16:0.0666667 
5.0 5.0 5.0 5.0 5.0 5.0 5.0 5.0 5.0 3.4465221745013994 5.0 5.0 0.0 5.0 5.0 5.0 5.0 5.0 5.0 5.0 5.0 0.0 5.0 5.0 5.0 1:-0.466667 2:-0.0666667 3:-0.2 4:-0.2 5:-0.2 6:-0.2 7:0.0666667 8:-0.333333 9:-0.333333 10:0.0666667 11:-0.2 12:0.0666667 13:-0.2 14:0.2 15:0.0666667 16:-0.0666667 
0.0 0.0 0.0 0.0 0.0 0.0 0.0 0.0 0.0 5.0 0.0 5.0 0.0 0.0 0.0 0.0 0.0 0.0 0.0 0.0 0.0 0.0 0.0 0.0 0.0 1:-0.733333 2:-0.733333 3:-0.466667 4:-0.6 5:-0.866667 6:-0.0666667 7:0.6 8:-0.733333 9:-0.6 10:-0.0666667 11:0.466667 12:0.2 13:-0.733333 14:0.333333 15:-0.866667 16:0.0666667 
0.0 0.0 0.0 0.712384839233751 0.0 0.0 0.7977550434765031 0.0 0.0 0.0 0.0 0.0 0.8669489408740608 0.0 0.0 5.0 0.0 0.0 0.0 0.0 0.0 0.0 0.0 0.0 0.0 1:0.0666667 2:0.333333 3:0.0666667 4:0.0666667 5:-0.466667 6:-0.6 7:0.6 8:-0.6 9:-0.466667 10:0.466667 11:0.6 12:0.0666667 13:-0.6 14:0.2 15:-0.866667 16:-0.0666667 
0.0 0.0 5.0 5.0 0.0 0.0 5.0 5.0 5.0 0.0 0.0 0.0 5.0 5.0 5.0 5.0 5.0 0.0 0.0 5.0 5.0 5.0 0.0 0.0 0.0 1:-0.466667 2:-0.2 3:-0.333333 4:-0.466667 5:-0.2 6:0.0666667 7:-0.2 8:-0.466667 9:-0.733333 10:0.0666667 11:-0.0666667 12:0.2 13:-0.0666667 14:0.2 15:-0.466667 16:0.0666667 
0.0 0.0 0.0 0.0 0.0 0.0 0.0 0.0 0.0 0.0 0.0 0.0 0.0 0.0 0.0 0.0 0.0 0.0 0.0 0.0 0.0 0.0 5.0 0.0 0.0 1:-0.466667 2:-0.2 3:-0.466667 4:-0.466667 5:-0.733333 6:-0.733333 7:0.6 8:-0.6 9:-0.6 10:0.466667 11:0.466667 12:0.0666667 13:-0.733333 14:0.466667 15:-0.866667 16:0.0666667 
0.0 0.0 0.0 0.0 0.8945981928383137 0.0 5.0 0.0 0.0 5.0 0.0 5.0 0.0 0.0 0.0 0.0 0.0 0.0 0.0 0.0 0.0 0.0 0.0 0.0 1.224225615472002 1:-0.6 2:-0.733333 3:-0.333333 4:-0.6 5:-0.866667 6:-0.2 7:0.6 8:-0.6 9:-0.466667 10:0.0666667 11:0.466667 12:0.0666667 13:-0.733333 14:0.333333 15:-0.866667 16:0.0666667 
0.14562330972438112 0.0 0.0 5.0 0.0 0.0 0.0 0.0 0.0 0.0 0.0 0.0 5.0 0.0 5.0 5.0 0.0 0.0 0.0 0.0 0.0 0.0 0.0 0.0 0.0 1:0.333333 2:0.866667 3:0.2 4:0.0666667 5:-0.333333 6:0.2 7:-0.0666667 8:-0.466667 9:-0.333333 10:-0.2 11:0.0666667 12:-0.2 13:-0.0666667 14:0.6 15:-0.6 16:0.0666667 
0.0 0.0 0.0 0.0 0.0 0.0 0.0 0.0 0.0 2.8873743213583007 0.0 0.0 0.0 0.0 0.0 0.0 0.0 0.0 0.0 0.0 0.0 0.0 0.0 0.0 0.0 1:-0.733333 2:-0.6 3:-0.6 4:-0.733333 5:-0.866667 6:-0.466667 7:0.6 8:-0.6 9:-0.733333 10:0.333333 11:0.466667 12:-0.0666667 13:-0.733333 14:0.466667 15:-0.866667 16:0.0666667 
0.0 0.0 0.0 0.0 0.0 0.0 0.0 0.0 0.0 0.0 0.0 0.0 0.0 0.0 0.0 0.0 0.0 0.0 0.0 0.0 0.0 0.0 5.0 0.0 0.0 1:-0.2 2:0.2 3:-0.2 4:-0.0666667 5:-0.6 6:-0.866667 7:0.6 8:-0.466667 9:-0.466667 10:0.6 11:0.6 12:0.0666667 13:-0.733333 14:0.333333 15:-0.866667 16:-0.0666667 
5.0 5.0 5.0 5.0 5.0 5.0 5.0 5.0 5.0 0.0 5.0 0.0 3.3450083857077044 5.0 5.0 5.0 5.0 0.0 5.0 5.0 5.0 5.0 5.0 5.0 5.0 1:-0.466667 2:-0.2 3:-0.2 4:-0.333333 5:-0.2 6:-0.0666667 7:-0.0666667 8:-0.333333 9:-0.466667 10:-0.0666667 11:-0.2 12:0.0666667 13:-0.2 14:0.2 15:-0.0666667 16:0.0666667 
0.0 0.0 0.0 0.0 0.0 0.0 0.0 0.0 0.0 0.0 0.0 0.0 0.0 0.0 0.0 0.0 0.0 0.0 0.0 0.0 0.0 5.0 0.0 0.0 0.0 1:0.0666667 2:0.466667 3:-0.0666667 4:0.0666667 5:-0.333333 6:-0.6 7:0.466667 8:-0.866667 9:-0.6 10:0.0666667 11:0.333333 12:-0.0666667 13:-0.2 14:0.466667 15:-0.733333 16:-0.0666667 
0.0 0.0 0.0 0.0 0.0 0.0 0.0 0.0 0.0 0.0 0.0 0.0 0.9299077622398059 0.0 0.0 0.0 0.0 0.0 0.0 0.0 0.0 0.0 0.0 0.0 0.0 1:0.0666667 2:0.333333 3:0.0666667 4:0.0666667 5:-0.466667 6:-0.733333 7:0.733333 8:-0.333333 9:-0.466667 10:0.466667 11:0.6 12:-0.0666667 13:-0.6 14:0.2 15:-0.733333 16:-0.0666667 
5.0 5.0 5.0 5.0 5.0 5.0 5.0 5.0 5.0 0.0 5.0 5.0 5.0 5.0 5.0 5.0 5.0 5.0 5.0 5.0 5.0 5.0 5.0 5.0 5.0 1:-0.466667 2:-0.0666667 3:-0.2 4:-0.2 5:-0.0666667 6:-0.0666667 7:0.0666667 8:-0.333333 9:-0.333333 10:-0.0666667 11:-0.2 12:0.0666667 13:-0.2 14:0.2 15:-0.0666667 16:0.0666667 
0.0 0.0 0.0 0.0 0.0 0.0 0.0 0.0 0.0 5.0 0.0 0.0 0.0 0.0 0.0 0.0 0.0 0.0 0.0 0.0 0.0 0.0 0.0 0.0 0.0 1:-0.733333 2:-0.866667 3:-0.466667 4:-0.733333 5:-0.866667 6:-0.333333 7:0.6 8:-0.6 9:-0.6 10:0.2 11:0.466667 12:0.0666667 13:-0.733333 14:0.466667 15:-0.866667 16:0.0666667 
0.0 0.0 0.0 0.0 0.0 0.0 0.0 0.0 0.0 5.0 0.0 0.0 0.0 0.0 0.0 0.0 0.0 0.0 0.0 0.0 0.0 0.0 0.0 0.0 0.0 1:-0.333333 2:-0.0666667 3:-0.333333 4:-0.333333 5:-0.6 6:-0.6 7:0.466667 8:-0.733333 9:-0.6 10:0.333333 11:0.466667 12:0.0666667 13:-0.733333 14:0.466667 15:-0.866667 16:0.0666667 
0.0 0.0 0.0 0.0 0.0 0.0 0.0 0.0 0.0 5.0 0.0 0.0 0.0 0.0 0.0 0.0 0.0 0.0 0.0 0.0 0.0 0.0 0.0 0.0 0.0 1:-0.333333 2:0.2 3:-0.333333 4:-0.0666667 5:-0.466667 6:-0.6 7:0.466667 8:-0.733333 9:-0.6 10:0.2 11:0.466667 12:0.0666667 13:-0.6 14:0.6 15:-0.866667 16:-0.0666667 
0.0 0.0 0.0 0.0 0.0 0.0 0.0 0.0 0.0 5.0 0.0 0.0 0.0 0.0 0.0 0.0 0.0 0.0 0.0 0.0 0.0 0.0 0.0 0.0 0.0 1:-0.733333 2:-0.866667 3:-0.6 4:-0.866667 5:-1.0 6:-0.0666667 7:0.2 8:-0.466667 9:-0.733333 10:-0.0666667 11:0.733333 12:0.0666667 13:-0.733333 14:0.333333 15:-1.0 16:0.0666667 
0.0 0.0 0.0 4.646501671390159 5.0 5.0 5.0 3.686631268805032 5.0 5.0 0.0 0.0 5.0 0.0 5.0 5.0 5.0 5.0 5.0 5.0 0.0 5.0 5.0 0.26364178115439324 5.0 1:-0.2 2:-0.0666667 3:0.0666667 4:-0.2 5:0.0666667 6:0.0666667 7:-0.0666667 8:-0.466667 9:-0.466667 10:-0.0666667 11:-0.2 12:0.0666667 13:-0.0666667 14:0.2 15:0.0666667 16:-0.466667 
0.0 0.0 0.0 5.0 0.0 0.0 0.0 0.0 0.0 0.0 0.0 0.0 0.0 0.0 0.0 5.0 0.0 0.0 0.0 0.0 0.0 5.0 0.0 0.0 0.0 1:-0.0666667 2:0.0666667 3:-0.2 4:-0.2 5:-0.466667 6:-0.6 7:0.466667 8:-0.866667 9:-0.6 10:0.2 11:0.333333 12:0.0666667 13:-0.466667 14:0.2 15:-0.866667 16:0.0666667 
0.0 0.0 0.0 0.0 0.0 0.0 0.0 0.0 0.0 5.0 0.0 0.0 0.0 0.0 0.0 0.0 0.0 0.0 0.0 0.0 0.0 5.0 0.0 0.0 0.0 1:-0.733333 2:-0.6 3:-0.6 4:-0.733333 5:-0.866667 6:-0.466667 7:0.6 8:-0.6 9:-0.733333 10:0.2 11:0.466667 12:-0.0666667 13:-0.733333 14:0.466667 15:-1.0 16:-0.0666667 
0.0 0.0 0.0 0.0 0.0 0.0 0.0 0.0 0.0 5.0 0.0 0.0 0.0 0.0 0.0 0.0 0.0 0.0 0.0 0.0 0.0 0.0 0.0 0.0 0.0 1:-0.6 2:-0.466667 3:-0.466667 4:-0.6 5:-0.866667 6:-0.466667 7:0.6 8:-0.6 9:-0.6 10:0.333333 11:0.466667 12:-0.0666667 13:-0.733333 14:0.466667 15:-0.866667 16:0.0666667 
0.0 0.0 0.0 0.0 0.0 0.0 0.0 0.0 0.0 5.0 0.0 0.0 0.0 0.0 0.0 0.0 0.0 0.0 0.0 0.0 0.0 0.0 0.0 0.0 0.0 1:-0.866667 2:-1.0 3:-0.733333 4:-0.866667 5:-1.0 6:-0.0666667 7:0.2 8:-0.6 9:-0.733333 10:-0.0666667 11:0.6 12:0.0666667 13:-0.733333 14:0.333333 15:-1.0 16:0.0666667 
5.0 1.1870720664289962 5.0 5.0 5.0 5.0 5.0 5.0 5.0 0.0 5.0 5.0 5.0 5.0 5.0 5.0 5.0 5.0 5.0 5.0 5.0 5.0 5.0 5.0 5.0 1:-0.466667 2:-0.333333 3:-0.2 4:-0.466667 5:-0.333333 6:-0.0666667 7:0.0666667 8:-0.333333 9:-0.333333 10:-0.0666667 11:-0.2 12:0.0666667 13:-0.2 14:0.2 15:-0.0666667 16:-0.2 
0.0 0.0 0.0 0.0 0.0 0.0 0.0 0.0 0.0 5.0 0.0 0.0 0.0 0.0 0.0 0.0 0.0 0.0 0.0 0.0 0.0 0.0 3.7465112000246585 0.0 0.0 1:-0.333333 2:0.333333 3:-0.333333 4:-0.0666667 5:-0.6 6:-0.466667 7:0.466667 8:-0.733333 9:-0.6 10:0.2 11:0.466667 12:-0.0666667 13:-0.733333 14:0.333333 15:-0.866667 16:0.0666667 
0.0 0.0 0.0 0.0 0.0 0.0 0.0 0.0 0.0 5.0 0.0 0.0 0.0 0.0 0.0 0.0 0.0 0.0 0.0 0.0 0.0 0.0 0.0 0.0 0.0 1:-0.733333 2:-1.0 3:-0.6 4:-0.866667 5:-1.0 6:0.0666667 7:0.2 8:-0.466667 9:-0.733333 10:-0.2 11:0.733333 12:0.0666667 13:-0.733333 14:0.333333 15:-1.0 16:0.0666667 
0.0 0.0 5.0 0.0 0.0 0.0 0.0 0.0 0.0 0.0 0.0 0.0 0.0 0.0 0.0 0.0 0.0 0.0 0.0 0.0 0.0 0.0 0.0 5.0 0.0 1:-0.466667 2:0.2 3:-0.2 4:-0.0666667 5:-0.6 6:-0.466667 7:0.466667 8:-0.6 9:-0.466667 10:0.2 11:0.6 12:0.2 13:-0.733333 14:0.333333 15:-0.866667 16:0.0666667 
0.0 0.0 0.0 4.778920113344729 0.0 0.0 0.0 0.0 0.0 0.0 0.0 0.0 0.0 0.0 0.0 5.0 0.0 0.0 0.0 0.0 0.0 0.0 0.0 0.0 0.0 1:-0.0666667 2:0.466667 3:-0.0666667 4:0.0666667 5:-0.333333 6:-0.733333 7:0.6 8:-0.733333 9:-0.6 10:0.2 11:0.466667 12:0.0666667 13:-0.6 14:0.2 15:-0.733333 16:-0.2 
0.0 1.300294477876127 0.0 0.0 5.0 5.0 5.0 0.0 0.0 5.0 5.0 5.0 0.0 0.0 0.0 0.0 0.0 5.0 5.0 0.0 0.0 0.0 0.0 1.7895334710447186 5.0 1:0.2 2:0.866667 3:-0.0666667 4:0.0666667 5:-0.6 6:-0.0666667 7:0.466667 8:-0.333333 9:-0.2 10:0.333333 11:0.333333 12:-0.333333 13:-0.466667 14:0.466667 15:-0.6 16:0.0666667 
0.0 0.0 0.0 0.0 0.0 0.0 4.892694803240882 0.0 0.0 0.0 0.0 0.0 5.0 0.0 3.2492813733987997 5.0 0.0 0.0 0.0 0.0 5.0 5.0 0.0 0.0 0.0 1:-0.466667 2:0.0666667 3:-0.2 4:-0.2 5:-0.0666667 6:-0.0666667 7:-0.0666667 8:-0.466667 9:-0.866667 10:0.0666667 11:-0.0666667 12:0.2 13:-0.0666667 14:0.333333 15:-0.466667 16:-0.0666667 
0.0 0.0 0.0 0.0 0.0 0.0 0.0 0.0 4.99626149488848 5.0 0.0 0.0 0.0 5.0 0.0 0.0 0.0 0.0 0.0 0.0 0.0 0.0 0.0 0.0 0.0 1:-0.466667 2:-0.466667 3:-0.2 4:-0.0666667 5:-0.866667 6:0.2 7:0.0666667 8:-0.466667 9:-0.6 10:-0.2 11:0.866667 12:0.0666667 13:-0.6 14:0.2 15:-1.0 16:0.0666667 
0.0 0.0 0.0 0.0 0.0 0.0 0.0 0.0 0.0 0.0 0.0 0.0 0.0 0.0 0.0 0.0 0.0 0.0 0.0 0.0 5.0 0.0 0.0 0.0 0.0 1:-0.2 2:0.466667 3:-0.2 4:0.0666667 5:-0.6 6:-0.6 7:0.6 8:-0.333333 9:-0.466667 10:0.466667 11:0.6 12:-0.0666667 13:-0.6 14:0.2 15:-0.866667 16:0.0666667 
0.0 0.0 0.0 0.0 0.0 0.0 0.0 0.0 0.0 0.0 0.0 5.0 0.0 0.0 0.0 0.0 0.0 0.0 0.0 0.0 0.0 0.0 0.0 0.0 0.0 1:-0.0666667 2:0.6 3:-0.333333 4:-0.2 5:-0.6 6:0.0666667 7:0.333333 8:-0.333333 9:-0.333333 10:-0.0666667 11:0.333333 12:-0.333333 13:-0.333333 14:0.6 15:-0.6 16:-0.0666667 
5.0 0.0 0.0 0.0 0.0 0.0 0.0 0.0 0.0 5.0 0.0 0.0 0.0 0.0 0.0 0.0 0.0 0.0 0.0 0.0 0.0 0.0 0.0 0.0 0.0 1:-0.6 2:0.333333 3:-0.333333 4:-0.0666667 5:-0.466667 6:-0.0666667 7:0.466667 8:-0.733333 9:-0.6 10:-0.333333 11:0.466667 12:0.2 13:-0.733333 14:0.466667 15:-0.866667 16:0.0666667 
0.0 0.0 0.0 0.0 0.0 0.0 5.0 0.0 0.0 0.0 0.0 5.0 0.0 0.0 4.40021624433648 5.0 0.0 0.0 0.0 0.0 0.0 0.0 5.0 0.0 4.647946582228885 1:-0.333333 2:-0.2 3:-0.333333 4:-0.466667 5:-0.733333 6:-0.733333 7:0.6 8:-0.333333 9:-0.466667 10:0.6 11:0.466667 12:-0.0666667 13:-0.733333 14:0.333333 15:-0.866667 16:-0.0666667 
0.0 0.0 0.0 0.0 0.0 0.0 0.0 0.0 0.0 5.0 0.0 0.0 0.0 0.0 5.0 0.0 0.0 0.0 0.0 0.0 0.0 0.0 0.0 0.0 0.0 1:-0.866667 2:-1.0 3:-0.733333 4:-1.0 5:-1.0 6:0.0666667 7:0.2 8:-0.6 9:-0.733333 10:-0.0666667 11:0.6 12:0.0666667 13:-0.733333 14:0.333333 15:-1.0 16:0.0666667 
0.0 0.0 0.0 0.0 0.0 0.0 0.0 0.0 0.0 5.0 0.0 0.0 0.0 0.0 0.0 0.0 0.0 0.0 0.0 0.0 0.0 0.0 5.0 0.0 0.0 1:-0.6 2:-0.466667 3:-0.466667 4:-0.6 5:-0.866667 6:-0.466667 7:0.6 8:-0.733333 9:-0.6 10:0.2 11:0.466667 12:-0.0666667 13:-0.733333 14:0.333333 15:-0.866667 16:-0.0666667 
0.0 0.0 0.0 0.0 0.0 0.0 0.0 0.0 0.0 5.0 0.0 0.0 0.0 0.0 0.0 0.0 0.0 0.0 0.0 0.0 0.0 0.0 0.0 0.0 0.0 1:-0.6 2:-0.0666667 3:-0.466667 4:-0.333333 5:-0.733333 6:-0.333333 7:0.466667 8:-0.6 9:-0.6 10:0.2 11:0.466667 12:0.0666667 13:-0.733333 14:0.466667 15:-0.866667 16:0.0666667 
0.0 0.0 0.0 0.0 0.0 0.0 0.0 0.0 0.0 5.0 0.0 0.0 0.0 0.0 0.0 0.0 0.0 0.0 0.0 0.0 0.0 0.0 5.0 0.0 0.0 1:-0.466667 2:0.0666667 3:-0.466667 4:-0.2 5:-0.733333 6:-0.6 7:0.466667 8:-0.6 9:-0.6 10:0.333333 11:0.466667 12:-0.0666667 13:-0.733333 14:0.333333 15:-0.866667 16:-0.0666667 
0.0 0.0 0.0 0.0 0.0 3.645193484156028 0.0 0.0 0.0 0.0 0.0 0.0 0.0 0.0 0.0 0.6930543452021499 0.0 0.0 0.0 0.0 0.0 5.0 0.0 0.0 5.0 1:-0.333333 2:0.333333 3:-0.333333 4:-0.333333 5:-0.6 6:-0.2 7:0.2 8:-0.466667 9:-0.6 10:0.2 11:-0.0666667 12:-0.333333 13:-0.333333 14:0.6 15:-0.733333 16:0.0666667 
0.0 0.0 0.0 0.0 0.0 0.0 0.47957706819420964 0.0 0.0 5.0 0.0 5.0 0.0 0.0 0.0 0.0 0.0 0.0 0.0 0.0 0.0 0.0 0.0 0.0 0.0 1:-0.733333 2:-0.866667 3:-0.466667 4:-0.6 5:-0.866667 6:-0.0666667 7:0.6 8:-0.733333 9:-0.6 10:-0.0666667 11:0.466667 12:0.2 13:-0.733333 14:0.333333 15:-0.866667 16:0.0666667 
0.0 0.0 0.0 0.0 0.0 0.0 0.0 0.0 0.0 0.0 0.0 0.0 0.0 0.0 0.0 0.0 0.0 0.0 0.0 0.0 0.0 0.0 0.0 0.0 0.44178562138102156 1:-0.333333 2:-0.333333 3:-0.2 4:-0.466667 5:-0.733333 6:-0.466667 7:0.6 8:-0.6 9:-0.6 10:0.333333 11:0.466667 12:-0.0666667 13:-0.733333 14:0.333333 15:-0.866667 16:0.0666667 
0.0 0.0 0.0 0.0 0.0 0.0 0.0 0.0 0.0 0.0 0.0 0.0 0.0 0.0 5.0 0.0 0.0 0.0 0.0 0.0 0.0 0.0 0.0 0.0 0.0 1:-0.466667 2:0.0666667 3:-0.2 4:-0.2 5:-0.866667 6:-0.2 7:0.0666667 8:-0.333333 9:-0.6 10:0.0666667 11:0.866667 12:0.0666667 13:-0.6 14:0.2 15:-1.0 16:0.0666667 
0.0 0.0 0.0 0.0 0.0 0.0 0.0 0.0 0.0 0.0 0.0 0.0 5.0 0.0 0.0 5.0 0.0 0.0 0.0 0.0 0.0 5.0 0.0 0.0 0.0 1:0.0666667 2:0.333333 3:-0.0666667 4:0.0666667 5:-0.333333 6:-0.6 7:0.6 8:-0.733333 9:-0.6 10:0.2 11:0.466667 12:0.0666667 13:-0.0666667 14:0.466667 15:-0.733333 16:-0.2 
0.0 0.0 5.0 0.0 0.0 0.0 5.0 0.9235779811416667 0.0 0.0 0.0 0.0 0.0 0.0 5.0 5.0 0.0 0.0 0.7610867740049235 0.0 5.0 0.0 5.0 5.0 0.0 1:-0.333333 2:0.0666667 3:-0.333333 4:-0.2 5:-0.733333 6:-0.733333 7:0.466667 8:-0.2 9:-0.466667 10:0.733333 11:0.6 12:0.0666667 13:-0.733333 14:0.333333 15:-0.866667 16:-0.0666667 
0.0 5.0 0.0 0.0 5.0 0.0 5.0 5.0 0.0 0.0 0.0 0.0 0.0 0.0 0.0 0.0 0.0 0.0 5.0 0.0 0.0 0.0 0.0 0.0 0.0 1:-0.466667 2:-0.0666667 3:-0.333333 4:-0.333333 5:-0.733333 6:-0.2 7:0.466667 8:-0.6 9:-0.733333 10:0.0666667 11:0.466667 12:0.0666667 13:-0.733333 14:0.2 15:-0.6 16:0.0666667 
0.0 0.0 0.0 0.0 0.0 0.0 0.0 0.0 0.0 0.0 0.0 0.0 0.0 0.0 0.0 0.0 0.0 0.0 0.0 0.0 0.0 5.0 0.0 0.0 0.0 1:-0.0666667 2:0.333333 3:-0.0666667 4:0.0666667 5:-0.466667 6:-0.466667 7:0.466667 8:-0.733333 9:-0.466667 10:0.0666667 11:0.466667 12:-0.0666667 13:-0.333333 14:0.466667 15:-0.866667 16:-0.0666667 
0.0 0.0 0.0 0.0 0.0 0.0 0.0 0.0 0.0 5.0 0.0 0.0 0.0 0.0 0.0 0.0 0.0 0.0 0.0 0.0 0.0 0.0 0.0 0.0 0.0 1:-0.866667 2:-0.866667 3:-0.733333 4:-0.733333 5:-0.866667 6:-0.0666667 7:0.6 8:-0.733333 9:-0.733333 10:-0.0666667 11:0.466667 12:0.0666667 13:-0.733333 14:0.466667 15:-1.0 16:0.0666667 
0.0 0.0 0.0 0.0 0.0 0.0 5.0 5.0 0.0 0.0 0.0 0.0 0.0 5.0 0.0 0.0 5.0 0.0 0.0 5.0 5.0 5.0 0.7016626818343532 0.0 5.0 1:-0.466667 2:-0.0666667 3:-0.2 4:-0.333333 5:-0.0666667 6:-0.0666667 7:0.0666667 8:-0.466667 9:-0.866667 10:0.0666667 11:-0.0666667 12:0.0666667 13:-0.333333 14:0.333333 15:-0.333333 16:0.0666667 
0.0 5.0 0.0 0.0 5.0 5.0 5.0 0.0 1.462774614531682 0.0 5.0 5.0 0.0 0.0 0.0 0.5462919043470498 5.0 5.0 4.258156169707885 0.8516211775625547 5.0 0.0 5.0 0.0 0.0 1:-0.333333 2:0.2 3:-0.466667 4:-0.466667 5:-0.733333 6:-0.0666667 7:0.333333 8:-0.466667 9:-0.466667 10:0.0666667 11:0.2 12:-0.2 13:-0.6 14:0.333333 15:-0.733333 16:-0.0666667 
0.0 0.0 0.0 0.0 0.0 0.0 5.0 0.0 5.0 0.0 0.0 0.0 5.0 0.0 5.0 5.0 4.029223954241018 0.0 0.0 2.283494976397001 5.0 5.0 0.0 0.0 5.0 1:-0.466667 2:0.2 3:-0.2 4:-0.0666667 5:-0.0666667 6:0.0666667 7:-0.2 8:-0.466667 9:-0.733333 10:0.0666667 11:-0.0666667 12:0.0666667 13:0.0666667 14:0.2 15:-0.466667 16:-0.0666667 
0.0 0.0 3.234946994768394 0.0 0.0 0.0 5.0 5.0 5.0 0.0 5.0 0.0 0.0 5.0 5.0 5.0 5.0 0.0 0.0 5.0 5.0 5.0 0.0 0.0 5.0 1:-0.6 2:-0.0666667 3:-0.333333 4:-0.333333 5:-0.333333 6:0.0666667 7:-0.333333 8:-0.466667 9:-0.866667 10:-0.0666667 11:-0.0666667 12:0.0666667 13:-0.333333 14:0.2 15:-0.6 16:-0.0666667 
0.0 0.0 0.0 0.0 0.0 0.0 0.0 0.0 0.0 5.0 0.0 5.0 0.0 0.0 0.0 0.0 0.0 0.0 0.0 0.0 0.0 0.0 0.0 0.0 0.0 1:-0.866667 2:-0.6 3:-0.6 4:-0.733333 5:-0.866667 6:-0.2 7:0.466667 8:-0.6 9:-0.6 10:0.0666667 11:0.466667 12:0.0666667 13:-0.733333 14:0.466667 15:-0.866667 16:0.0666667 
0.0 0.0 0.0 0.0 0.0 0.0 0.0 0.0 0.0 5.0 0.0 0.0 0.0 0.0 0.0 0.0 0.0 0.0 0.0 0.0 0.0 0.0 0.0 0.0 0.0 1:-0.6 2:0.0666667 3:-0.333333 4:-0.2 5:-0.866667 6:0.0666667 7:0.0666667 8:-0.466667 9:-0.6 10:-0.2 11:0.866667 12:0.0666667 13:-0.6 14:0.333333 15:-1.0 16:0.0666667 
0.0 0.0 0.0 0.0 0.0 0.0 0.0 0.0 0.0 0.0 0.0 0.0 0.0 0.0 5.0 0.0 0.0 0.0 0.0 0.0 0.0 0.0 0.0 0.0 0.0 1:-0.6 2:0.2 3:-0.333333 4:-0.2 5:-0.866667 6:-0.0666667 7:0.0666667 8:-0.466667 9:-0.6 10:-0.0666667 11:0.866667 12:0.0666667 13:-0.6 14:0.2 15:-1.0 16:0.0666667 
0.0 0.0 0.0 0.0 0.0 0.0 0.0 0.0 0.0 5.0 0.0 5.0 0.0 0.0 0.0 0.0 0.0 0.0 0.0 0.0 0.0 0.0 0.0 0.0 0.0 1:-0.866667 2:-0.6 3:-0.733333 4:-0.866667 5:-0.866667 6:-0.2 7:0.6 8:-0.733333 9:-0.6 10:0.0666667 11:0.466667 12:0.0666667 13:-0.733333 14:0.466667 15:-1.0 16:0.0666667 
0.0 0.0 0.0 0.0 0.0 0.0 0.0 0.0 0.0 5.0 0.0 0.0 0.0 4.965940221446129 0.0 0.0 0.0 0.0 0.0 0.0 0.0 0.0 0.0 0.0 5.0 1:-0.733333 2:-0.866667 3:-0.6 4:-0.6 5:-0.866667 6:-0.0666667 7:0.6 8:-0.733333 9:-0.733333 10:-0.0666667 11:0.466667 12:0.0666667 13:-0.733333 14:0.333333 15:-0.866667 16:0.0666667 
3.4620592641450125 0.0 0.0 0.0 0.0 0.0 0.0 0.0 0.0 5.0 0.0 5.0 0.0 0.0 0.0 0.0 0.0 0.0 0.0 0.0 0.0 0.0 0.0 0.0 0.0 1:-0.733333 2:-0.0666667 3:-0.466667 4:-0.333333 5:-0.6 6:0.2 7:0.6 8:-0.733333 9:-0.6 10:-0.466667 11:0.333333 12:0.2 13:-0.733333 14:0.466667 15:-0.866667 16:0.2 
0.0 0.0 0.0 0.0 0.0 0.0 5.0 5.0 0.0 0.0 0.0 0.0 5.0 0.0 0.0 5.0 5.0 0.0 0.0 5.0 5.0 5.0 0.0 0.0 5.0 1:-0.466667 2:-0.0666667 3:-0.2 4:-0.333333 5:-0.2 6:-0.0666667 7:-0.0666667 8:-0.466667 9:-0.733333 10:0.0666667 11:-0.0666667 12:0.0666667 13:-0.0666667 14:0.333333 15:-0.333333 16:-0.0666667 
0.0 0.0 0.0 0.0 0.0 0.0 0.0 5.0 0.0 0.0 0.0 0.0 0.0 5.0 0.0 0.0 0.0 0.0 0.0 0.0 0.0 0.0 0.0 0.0 0.0 1:-0.6 2:-0.2 3:-0.333333 4:-0.466667 5:-0.6 6:0.0666667 7:0.466667 8:-0.6 9:-0.733333 10:-0.333333 11:0.333333 12:0.2 13:-0.6 14:0.333333 15:-0.6 16:0.333333 
0.0 0.0 0.0 0.0 0.0 0.0 0.0 0.0 0.0 5.0 0.0 0.0 0.0 0.0 0.0 0.0 0.0 0.0 0.0 0.0 0.0 0.0 0.0 0.0 0.0 1:-0.733333 2:-0.6 3:-0.466667 4:-0.333333 5:-0.866667 6:0.0666667 7:0.0666667 8:-0.466667 9:-0.733333 10:-0.2 11:0.733333 12:0.0666667 13:-0.6 14:0.333333 15:-1.0 16:0.0666667 
0.0 0.0 0.0 0.0 0.0 0.0 0.0 0.0 0.0 5.0 4.064245313054409 0.0 0.0 0.0 0.0 0.0 0.0 0.0 0.0 0.0 0.0 0.0 0.0 0.0 0.0 1:-0.2 2:0.2 3:-0.2 4:-0.0666667 5:-0.6 6:-0.466667 7:0.466667 8:-0.6 9:-0.466667 10:0.2 11:0.466667 12:-0.0666667 13:-0.733333 14:0.333333 15:-0.866667 16:0.0666667 
1.9881152778611444 0.0 0.0 0.0 0.0 0.0 0.0 0.0 0.0 1.1334554021785301 0.0 0.0 0.0 0.0 0.0 0.0 0.0 0.0 0.0 0.0 0.0 0.0 0.0 0.0 0.0 1:-0.466667 2:0.333333 3:-0.2 4:0.0666667 5:-0.466667 6:0.0666667 7:0.466667 8:-0.733333 9:-0.6 10:-0.466667 11:0.333333 12:0.2 13:-0.6 14:0.466667 15:-0.866667 16:0.0666667 
0.0 0.0 0.0 0.0 0.0 0.0 0.0 0.0 0.0 0.0 0.0 0.0 0.0 0.0 0.0 0.0 0.0 0.0 0.0 0.0 0.0 0.0 0.0 0.0 3.876897602422344 1:0.2 2:0.466667 3:-0.0666667 4:-0.2 5:-0.6 6:-0.0666667 7:0.466667 8:-0.2 9:-0.333333 10:0.0666667 11:0.333333 12:-0.466667 13:-0.333333 14:0.6 15:-0.6 16:0.2 
5.0 5.0 5.0 5.0 5.0 5.0 5.0 5.0 5.0 0.0 5.0 0.0 5.0 5.0 5.0 5.0 5.0 0.0 0.0 5.0 5.0 5.0 3.190419647243054 5.0 5.0 1:-0.466667 2:-0.2 3:-0.2 4:-0.2 5:-0.2 6:-0.0666667 7:-0.2 8:-0.333333 9:-0.466667 10:-0.2 11:-0.333333 12:0.0666667 13:-0.0666667 14:0.2 15:-0.0666667 16:0.2 
0.0 0.0 0.0 0.0 0.0 0.0 0.0 0.0 0.0 5.0 0.0 0.0 0.0 0.0 0.0 0.0 0.0 0.0 0.0 0.0 0.0 0.0 0.0 0.0 0.0 1:-0.6 2:0.2 3:-0.466667 4:-0.0666667 5:-0.6 6:0.2 7:0.2 8:-0.6 9:-0.866667 10:-0.2 11:0.6 12:0.0666667 13:-0.6 14:0.333333 15:-0.866667 16:0.0666667 
0.0 0.0 0.0 0.0 0.0 0.0 0.0 0.0 0.0 5.0 0.0 0.0 0.0 0.0 0.0 0.0 0.0 0.0 0.0 0.0 0.0 0.0 0.0 0.0 0.0 1:-0.6 2:0.0666667 3:-0.333333 4:-0.2 5:-0.733333 6:0.2 7:0.2 8:-0.466667 9:-0.866667 10:-0.2 11:0.6 12:0.0666667 13:-0.733333 14:0.333333 15:-1.0 16:0.0666667 
0.0 5.0 0.0 0.0 0.0 0.0 0.0 0.0 0.0 5.0 0.0 5.0 0.0 0.0 0.0 0.0 0.0 0.0 0.0 0.0 0.0 0.0 0.0 0.0 0.0 1:-0.733333 2:-0.0666667 3:-0.466667 4:-0.333333 5:-0.733333 6:0.0666667 7:0.466667 8:-0.733333 9:-0.6 10:-0.333333 11:0.333333 12:0.0666667 13:-0.733333 14:0.466667 15:-0.866667 16:0.0666667 
0.0 0.0 0.0 0.0 0.0 0.0 0.0 0.0 0.0 5.0 0.0 0.0 0.0 0.0 0.0 0.0 0.0 0.0 0.0 0.0 0.0 0.0 0.0 0.0 0.0 1:-0.6 2:-0.333333 3:-0.466667 4:-0.466667 5:-0.733333 6:-0.333333 7:0.6 8:-0.733333 9:-0.6 10:0.0666667 11:0.466667 12:-0.0666667 13:-0.733333 14:0.466667 15:-0.866667 16:0.0666667 
0.0 0.0 0.0 0.0 0.0 0.0 0.0 0.0 0.0 5.0 0.0 5.0 0.0 0.0 0.0 0.0 0.0 0.0 0.0 0.0 0.0 0.0 0.0 0.0 0.0 1:-0.733333 2:-0.2 3:-0.466667 4:-0.466667 5:-0.733333 6:0.2 7:0.6 8:-0.733333 9:-0.6 10:-0.466667 11:0.333333 12:0.2 13:-0.733333 14:0.466667 15:-0.866667 16:0.2 
0.0 0.0 0.0 0.0 0.0 0.0 0.0 0.0 0.0 5.0 0.0 0.0 0.0 0.0 0.0 0.0 0.0 0.0 0.0 0.0 0.0 0.0 0.0 0.0 0.0 1:-0.466667 2:-0.2 3:-0.466667 4:-0.466667 5:-0.733333 6:-0.466667 7:0.6 8:-0.866667 9:-0.733333 10:0.2 11:0.333333 12:-0.0666667 13:-0.733333 14:0.466667 15:-1.0 16:0.0666667 
0.0 0.0 0.0 0.0 0.0 0.0 0.0 0.0 0.0 5.0 0.0 0.0 0.0 0.0 0.0 0.0 0.0 0.0 0.0 0.0 0.0 0.0 5.0 0.0 0.0 1:-0.333333 2:0.333333 3:-0.333333 4:-0.0666667 5:-0.6 6:-0.733333 7:0.466667 8:-0.6 9:-0.6 10:0.466667 11:0.466667 12:0.0666667 13:-0.733333 14:0.466667 15:-0.866667 16:0.0666667 
0.0 0.0 0.0 0.0 0.0 0.0 0.0 0.0 0.0 5.0 0.0 0.0 0.0 0.0 0.0 0.0 0.0 0.0 0.0 0.0 0.0 0.0 0.0 0.0 0.0 1:-0.466667 2:0.466667 3:-0.2 4:0.0666667 5:-0.466667 6:-0.2 7:0.466667 8:-0.733333 9:-0.6 10:-0.2 11:0.466667 12:0.2 13:-0.733333 14:0.333333 15:-0.866667 16:0.0666667 
0.0 0.0 0.0 0.0 0.0 0.0 0.0 0.0 0.0 5.0 0.0 0.0 0.0 0.0 0.0 0.0 0.0 0.0 0.0 0.0 0.0 0.0 0.0 0.0 0.0 1:-0.733333 2:-1.0 3:-0.6 4:-0.866667 5:-1.0 6:-0.0666667 7:0.2 8:-0.466667 9:-0.733333 10:-0.0666667 11:0.733333 12:0.0666667 13:-0.733333 14:0.333333 15:-1.0 16:0.0666667 
0.0 0.0 5.0 0.0 0.0 0.0 0.0 0.0 0.0 0.0 0.0 0.0 0.0 0.0 0.0 0.0 0.0 0.0 5.0 0.0 0.0 0.0 5.0 0.0 0.0 1:-0.333333 2:0.333333 3:-0.333333 4:0.0666667 5:-0.6 6:-0.6 7:0.466667 8:-0.333333 9:-0.466667 10:0.6 11:0.6 12:0.0666667 13:-0.733333 14:0.333333 15:-0.866667 16:0.0666667 
0.0 0.0 0.0 0.0 0.0 0.0 0.0 0.0 0.0 5.0 0.0 0.0 0.0 0.0 0.0 0.0 0.0 0.0 0.0 0.0 0.0 0.0 0.0 0.0 0.0 1:-0.6 2:-0.0666667 3:-0.466667 4:-0.333333 5:-0.733333 6:0.0666667 7:0.2 8:-0.6 9:-0.866667 10:-0.2 11:0.6 12:0.0666667 13:-0.733333 14:0.333333 15:-1.0 16:0.0666667 
0.0 0.0 0.0 0.0 0.0 0.0 0.0 0.0 0.0 5.0 0.0 0.0 0.0 5.0 0.0 0.0 0.0 0.0 0.0 0.0 0.0 0.0 0.0 0.0 0.0 1:-0.466667 2:-0.466667 3:-0.2 4:-0.0666667 5:-0.866667 6:0.2 7:0.0666667 8:-0.333333 9:-0.6 10:-0.2 11:0.866667 12:0.0666667 13:-0.6 14:0.2 15:-1.0 16:0.0666667 
0.0 0.0 0.0 0.0 0.0 0.0 0.0 0.0 0.0 0.0 0.0 0.0 0.0 0.0 0.0 0.0 0.0 0.0 0.0 0.0 0.0 0.0 0.0 0.0 5.0 1:-0.466667 2:-0.466667 3:-0.333333 4:-0.6 5:-0.733333 6:-0.333333 7:0.6 8:-0.733333 9:-0.6 10:0.0666667 11:0.333333 12:-0.0666667 13:-0.733333 14:0.333333 15:-0.866667 16:0.0666667 
0.0 0.0 0.0 0.0 0.0 0.0 0.0 2.04124131213544 0.0 5.0 0.0 0.0 0.0 5.0 0.0 0.0 0.0 0.0 0.0 0.0 0.0 0.0 0.0 0.0 0.0 1:-0.2 2:0.333333 3:0.0666667 4:0.0666667 5:-0.333333 6:-0.0666667 7:0.466667 8:-0.6 9:-0.733333 10:-0.333333 11:0.333333 12:0.2 13:-0.6 14:0.466667 15:-0.466667 16:0.0666667 
0.0 0.0 0.0 0.0 0.0 0.0 0.0 0.0 0.0 0.0 0.0 0.0 0.0 0.0 0.0 0.0 0.0 0.0 0.0 5.0 0.0 0.0 0.0 0.0 0.0 1:-0.2 2:0.2 3:-0.466667 4:-0.466667 5:-0.733333 6:0.0666667 7:0.333333 8:-0.333333 9:-0.466667 10:-0.0666667 11:0.333333 12:-0.333333 13:-0.466667 14:0.466667 15:-0.6 16:-0.0666667 
5.0 5.0 0.0 5.0 5.0 5.0 5.0 5.0 5.0 5.0 5.0 5.0 5.0 5.0 5.0 5.0 5.0 5.0 5.0 5.0 5.0 0.0 5.0 5.0 5.0 1:-0.466667 2:0.0666667 3:-0.2 4:-0.0666667 5:-0.0666667 6:0.0666667 7:0.0666667 8:-0.333333 9:-0.466667 10:-0.0666667 11:-0.2 12:0.0666667 13:-0.0666667 14:-0.0666667 15:0.333333 16:-0.466667 
0.0 0.0 0.0 0.0 0.0 0.0 0.0 0.0 0.0 0.0 0.0 5.0 0.0 0.0 0.0 0.0 0.0 0.0 0.0 0.0 0.0 0.0 0.0 0.0 0.0 1:-0.6 2:0.0666667 3:-0.333333 4:-0.2 5:-0.6 6:-0.333333 7:0.466667 8:-0.6 9:-0.466667 10:0.0666667 11:0.6 12:0.2 13:-0.733333 14:0.333333 15:-0.866667 16:0.0666667 
0.0 0.0 0.0 0.0 0.0 0.0 0.0 0.0 0.0 0.0 0.0 0.0 0.0 0.0 0.0 0.0 0.0 0.0 0.0 0.0 5.0 5.0 0.0 0.0 0.0 1:-0.2 2:0.2 3:-0.466667 4:-0.333333 5:-0.6 6:0.0666667 7:0.2 8:-0.2 9:-0.6 10:-0.0666667 11:0.2 12:-0.2 13:-0.2 14:0.6 15:-0.6 16:0.0666667 
0.0 0.0 0.0 0.0 0.0 0.0 0.0 0.0 1.2816689600992073 0.0 0.0 0.0 0.0 0.0 0.0 0.022566522950776102 0.0 0.0 0.0 0.0 0.0 5.0 0.0 0.0 0.0 1:-0.6 2:-0.733333 3:-0.2 4:-0.466667 5:-0.733333 6:-0.0666667 7:0.6 8:-0.733333 9:-0.6 10:-0.0666667 11:0.466667 12:0.2 13:-0.6 14:0.333333 15:-0.866667 16:0.0666667 
0.0 0.0 0.0 0.0 0.0 0.0 0.0 0.0 0.0 5.0 0.0 0.0 0.0 0.0 0.0 0.0 0.0 0.0 0.0 0.0 0.0 0.0 0.0 0.0 0.0 1:-0.6 2:0.0666667 3:-0.333333 4:-0.2 5:-0.6 6:-0.2 7:0.466667 8:-0.733333 9:-0.6 10:-0.0666667 11:0.466667 12:0.2 13:-0.733333 14:0.333333 15:-0.866667 16:0.0666667 
0.0 0.0 0.0 0.0 0.0 0.0 0.0 0.0 0.0 5.0 0.0 0.0 0.0 0.0 0.0 0.0 0.0 0.0 0.0 0.0 0.0 0.0 0.0 0.0 0.0 1:-0.733333 2:0.0666667 3:-0.466667 4:-0.2 5:-0.866667 6:0.2 7:0.0666667 8:-0.466667 9:-0.733333 10:-0.2 11:0.733333 12:0.0666667 13:-0.6 14:0.333333 15:-1.0 16:0.0666667 
0.0 0.0 5.0 5.0 0.0 0.0 0.0 0.0 0.0 5.0 5.0 5.0 0.0 0.0 0.0 0.0 0.0 0.0 0.0 0.0 0.0 0.0 0.0 5.0 0.0 1:-0.466667 2:0.466667 3:-0.333333 4:0.0666667 5:-0.6 6:-0.333333 7:0.466667 8:-0.6 9:-0.466667 10:0.2 11:0.6 12:0.2 13:-0.733333 14:0.333333 15:-0.866667 16:0.0666667 
0.0 0.0 0.0 0.0 0.0 0.0 0.0 0.0 0.0 5.0 0.0 0.0 0.0 0.0 0.0 0.0 0.0 0.0 0.0 0.0 0.0 0.0 0.0 0.0 0.0 1:-0.466667 2:-0.466667 3:-0.2 4:-0.0666667 5:-0.866667 6:0.0666667 7:0.0666667 8:-0.466667 9:-0.6 10:-0.2 11:0.866667 12:0.0666667 13:-0.6 14:0.2 15:-1.0 16:0.0666667 
0.0 0.0 0.0 0.0 0.0 4.930417442414835 0.37319447213050716 0.0 5.0 3.7541546728846007 0.0 5.0 0.0 0.0 5.0 5.0 0.0 0.6332190228024924 0.0 0.0 0.0 0.0 0.0 0.0 0.0 1:0.0666667 2:0.6 3:-0.2 4:-0.2 5:-0.6 6:0.0666667 7:0.466667 8:-0.466667 9:-0.333333 10:-0.333333 11:0.333333 12:-0.2 13:-0.466667 14:0.333333 15:-0.6 16:-0.333333 
5.0 0.0 5.0 5.0 0.0 0.0 5.0 5.0 0.0 0.0 0.0 0.0 5.0 5.0 5.0 0.0 5.0 0.0 0.0 5.0 5.0 5.0 0.0 5.0 0.0 1:-0.333333 2:0.466667 3:-0.0666667 4:0.0666667 5:0.0666667 6:0.0666667 7:-0.333333 8:-0.333333 9:-0.6 10:0.0666667 11:-0.0666667 12:0.2 13:0.2 14:0.2 15:-0.2 16:0.466667 
5.0 5.0 5.0 5.0 5.0 5.0 5.0 5.0 5.0 5.0 3.7512225082785853 5.0 5.0 5.0 5.0 5.0 5.0 5.0 5.0 5.0 5.0 5.0 5.0 5.0 5.0 1:-0.6 2:-0.333333 3:-0.466667 4:-0.466667 5:-0.333333 6:0.0666667 7:0.0666667 8:-0.333333 9:-0.466667 10:-0.0666667 11:-0.2 12:0.0666667 13:-0.2 14:0.0666667 15:-0.0666667 16:-0.466667 
0.013816722444972607 0.0 0.0 5.0 0.0 0.0 5.0 5.0 5.0 0.0 0.0 0.0 5.0 5.0 5.0 5.0 5.0 0.0 0.0 5.0 5.0 5.0 0.0 0.0 5.0 1:-0.466667 2:-0.0666667 3:-0.2 4:-0.333333 5:-0.2 6:0.0666667 7:-0.333333 8:-0.466667 9:-0.733333 10:-0.0666667 11:-0.0666667 12:0.0666667 13:-0.0666667 14:0.0666667 15:-0.333333 16:0.0666667 
0.0 0.0 0.0 0.0 0.0 0.0 0.0 0.0 0.0 5.0 0.0 0.0 0.0 0.0 0.0 0.0 0.0 0.0 0.0 0.0 0.0 0.0 0.0 0.0 0.0 1:-0.866667 2:-0.866667 3:-0.733333 4:-0.866667 5:-1.0 6:-0.0666667 7:0.2 8:-0.466667 9:-0.733333 10:-0.0666667 11:0.733333 12:0.0666667 13:-0.733333 14:0.333333 15:-1.0 16:0.0666667 
0.0 0.0 0.0 0.0 0.0 0.0 0.0 0.0 0.0 5.0 0.0 0.0 0.0 0.0 0.0 0.0 0.0 0.0 0.0 0.0 0.0 5.0 0.0 0.0 0.0 1:-0.733333 2:-0.6 3:-0.6 4:-0.733333 5:-0.866667 6:-0.333333 7:0.6 8:-0.733333 9:-0.733333 10:0.0666667 11:0.333333 12:-0.0666667 13:-0.733333 14:0.466667 15:-1.0 16:0.0666667 
0.0 0.0 0.0 0.0 0.0 0.0 0.0 0.0 0.0 0.0 0.0 0.0 0.0 0.0 0.0 0.0 0.0 0.0 0.0 0.0 0.0 5.0 0.0 0.0 0.0 1:-0.2 2:-0.0666667 3:-0.2 4:-0.333333 5:-0.6 6:-0.466667 7:0.466667 8:-0.866667 9:-0.6 10:0.0666667 11:0.333333 12:0.0666667 13:-0.333333 14:0.466667 15:-0.733333 16:-0.0666667 
0.0 0.0 0.0 0.0 0.0 0.0 0.0 0.0 0.0 5.0 0.0 0.0 0.0 0.0 0.0 0.0 0.0 0.0 0.0 0.0 0.0 0.0 0.0 0.0 0.0 1:-0.6 2:0.2 3:-0.333333 4:-0.0666667 5:-0.866667 6:0.2 7:0.0666667 8:-0.466667 9:-0.6 10:-0.2 11:0.866667 12:0.0666667 13:-0.6 14:0.333333 15:-1.0 16:0.0666667 
0.0 0.0 0.0 0.0 0.0 0.0 0.0 0.0 0.0 5.0 0.0 0.0 0.0 0.0 0.0 0.0 0.0 0.0 0.0 0.0 0.0 0.0 0.0 0.0 0.0 1:-0.733333 2:-0.0666667 3:-0.466667 4:-0.333333 5:-0.733333 6:0.2 7:0.2 8:-0.6 9:-0.866667 10:-0.333333 11:0.6 12:0.0666667 13:-0.733333 14:0.466667 15:-1.0 16:0.0666667 
0.0 0.0 0.0 0.0 0.0 0.0 0.0 0.0 0.0 0.0 0.0 0.0 0.0 0.0 5.0 0.0 0.0 0.0 0.0 0.0 0.0 0.0 0.0 0.0 0.0 1:-0.6 2:0.2 3:-0.333333 4:-0.0666667 5:-0.866667 6:-0.2 7:0.0666667 8:-0.466667 9:-0.6 10:-0.0666667 11:0.866667 12:0.0666667 13:-0.6 14:0.2 15:-1.0 16:0.0666667 
0.0 0.0 0.0 0.0 0.0 0.0 5.0 0.0 5.0 5.0 0.0 0.0 5.0 0.0 5.0 5.0 2.460856564792397 0.0 0.0 0.0 0.0 5.0 0.0 0.0 5.0 1:-0.333333 2:0.466667 3:0.0666667 4:0.0666667 5:0.2 6:-0.0666667 7:-0.2 8:-0.466667 9:-0.733333 10:-0.0666667 11:0.0666667 12:0.0666667 13:-0.333333 14:0.2 15:-0.466667 16:-0.0666667 
0.0 0.0 0.0 2.160692162076506 0.0 1.089248248890055 5.0 0.0 0.0 5.0 0.0 0.0 0.0 0.0 0.0 0.0 0.0 0.0 0.0 2.5264163048575856 0.0 0.0 0.0 0.0 0.0 1:0.333333 2:0.866667 3:0.2 4:0.0666667 5:-0.333333 6:0.0666667 7:0.2 8:-0.466667 9:-0.2 10:0.0666667 11:0.2 12:-0.333333 13:-0.2 14:0.6 15:-0.466667 16:0.0666667 
0.0 0.0 0.0 0.0 0.0 0.0 0.0 0.0 0.0 5.0 0.0 5.0 0.0 0.0 0.0 0.0 0.0 0.0 0.0 0.0 0.0 0.0 0.0 0.0 0.0 1:-0.733333 2:-0.333333 3:-0.466667 4:-0.466667 5:-0.733333 6:-0.2 7:0.6 8:-0.733333 9:-0.6 10:0.0666667 11:0.466667 12:0.0666667 13:-0.733333 14:0.333333 15:-0.866667 16:0.0666667 
0.0 0.0 0.0 0.0 0.0 0.0 0.0 0.0 0.0 0.0 0.0 0.0 0.0 0.0 5.0 0.0 0.0 0.0 0.0 0.0 0.0 0.0 0.0 0.0 0.0 1:-0.466667 2:0.2 3:-0.2 4:-0.0666667 5:-0.866667 6:0.0666667 7:0.0666667 8:-0.333333 9:-0.6 10:-0.2 11:0.866667 12:0.0666667 13:-0.6 14:0.2 15:-1.0 16:0.0666667 
0.0 0.0 0.0 0.0 0.0 0.0 0.0 0.0 0.0 5.0 0.0 0.0 0.0 0.0 0.0 0.0 0.0 0.0 0.0 0.0 0.0 0.0 0.0 0.0 0.0 1:-0.733333 2:-1.0 3:-0.6 4:-0.866667 5:-1.0 6:-0.0666667 7:0.2 8:-0.466667 9:-0.733333 10:-0.0666667 11:0.733333 12:0.0666667 13:-0.733333 14:0.333333 15:-1.0 16:0.0666667 
0.0 0.0 0.0 0.0 0.0 0.0 0.0 0.0 0.0 5.0 0.0 0.0 0.0 0.0 0.0 0.0 0.0 0.0 0.0 0.0 0.0 0.0 0.0 0.0 0.0 1:-0.733333 2:-1.0 3:-0.6 4:-0.866667 5:-1.0 6:-0.0666667 7:0.2 8:-0.466667 9:-0.733333 10:-0.0666667 11:0.733333 12:0.0666667 13:-0.733333 14:0.333333 15:-1.0 16:0.0666667 
0.0 0.0 0.0 0.0 0.0 5.0 0.0 0.0 0.0 5.0 0.0 0.0 0.0 0.0 0.0 0.0 0.0 0.0 0.0 0.0 0.0 0.0 0.0 0.0 2.893629881762184 1:-0.2 2:0.466667 3:-0.333333 4:-0.2 5:-0.6 6:0.2 7:0.333333 8:-0.333333 9:-0.466667 10:-0.0666667 11:0.333333 12:-0.333333 13:-0.466667 14:0.466667 15:-0.6 16:-0.2 
0.0 0.0 0.0 0.0 0.0 0.0 0.0 0.0 0.0 0.0 0.0 0.0 0.0 0.0 0.0 0.0 0.0 0.0 0.0 0.0 0.0 5.0 0.0 0.0 0.0 1:-0.733333 2:-0.866667 3:-0.466667 4:-0.733333 5:-0.866667 6:-0.0666667 7:0.6 8:-0.733333 9:-0.733333 10:-0.2 11:0.466667 12:0.2 13:-0.466667 14:0.466667 15:-0.733333 16:-0.0666667 
0.0 0.0 0.0 0.0 0.0 0.0 5.0 0.0 0.0 0.0 0.0 0.0 0.0 0.0 0.0 0.0 0.0 0.0 5.0 0.0 0.0 0.0 0.0 0.0 5.0 1:-0.333333 2:0.333333 3:-0.0666667 4:-0.0666667 5:-0.466667 6:-0.333333 7:0.333333 8:-0.6 9:-0.733333 10:0.2 11:0.466667 12:-0.0666667 13:-0.466667 14:0.2 15:-0.333333 16:0.0666667 
0.0 0.0 0.0 0.0 0.0 0.0 0.0 0.0 0.0 5.0 0.0 5.0 0.0 0.0 0.0 0.0 0.0 0.0 0.0 0.0 0.0 0.0 0.0 0.0 0.0 1:-0.733333 2:-0.733333 3:-0.466667 4:-0.6 5:-0.733333 6:-0.0666667 7:0.6 8:-0.733333 9:-0.6 10:-0.0666667 11:0.466667 12:0.2 13:-0.733333 14:0.333333 15:-0.866667 16:0.0666667 
0.0 0.0 0.0 0.0 0.0 0.0 0.0 0.0 0.0 5.0 0.0 0.0 0.7260213647881342 0.0 0.0 5.0 0.0 0.0 0.0 0.0 0.0 5.0 0.0 0.0 0.0 1:-0.733333 2:-0.866667 3:-0.466667 4:-0.866667 5:-0.866667 6:-0.0666667 7:0.6 8:-0.6 9:-0.733333 10:-0.2 11:0.466667 12:0.2 13:-0.733333 14:0.466667 15:-1.0 16:-0.0666667 
0.0 0.0 0.0 0.0 0.0 0.0 0.0 0.0 0.0 5.0 0.0 5.0 0.0 1.9014106975595388 0.0 0.0 0.0 0.0 0.0 0.0 0.0 0.0 0.0 0.0 0.0 1:-0.733333 2:-0.866667 3:-0.466667 4:-0.733333 5:-0.866667 6:0.0666667 7:0.6 8:-0.6 9:-0.6 10:-0.333333 11:0.466667 12:0.2 13:-0.733333 14:0.333333 15:-0.866667 16:0.0666667 
0.0 0.0 0.0 0.0 0.0 4.0225243080064335 5.0 0.0 0.0 0.0 3.53651198176783 0.0 0.0 0.0 0.0 0.0 0.0 0.0 0.0 0.0 5.0 0.0 0.6078501385061924 0.0 5.0 1:0.2 2:0.6 3:0.0666667 4:-0.0666667 5:-0.466667 6:-0.333333 7:0.333333 8:-0.466667 9:-0.466667 10:0.333333 11:0.0666667 12:-0.333333 13:-0.466667 14:0.466667 15:-0.733333 16:0.0666667 
2.502513946639223 5.0 0.0 0.0 5.0 5.0 5.0 5.0 5.0 5.0 5.0 0.0 0.0 5.0 5.0 5.0 5.0 4.057470397540082 5.0 5.0 5.0 5.0 5.0 0.0 5.0 1:-0.6 2:-0.2 3:-0.333333 4:-0.466667 5:-0.333333 6:0.0666667 7:-0.333333 8:-0.333333 9:-0.733333 10:-0.0666667 11:-0.0666667 12:-0.0666667 13:-0.466667 14:0.2 15:-0.466667 16:-0.2 
0.0 0.0 0.0 0.0 0.0 0.0 0.0 0.0 0.0 0.0 0.0 0.0 0.0 0.0 0.0 0.0 0.0 0.0 0.0 0.0 0.0 4.677186913243102 0.0 0.0 0.0 1:-0.333333 2:0.2 3:-0.0666667 4:-0.0666667 5:-0.6 6:-0.333333 7:0.2 8:-0.466667 9:-0.866667 10:0.2 11:0.733333 12:0.0666667 13:-0.333333 14:0.333333 15:-0.733333 16:0.2 
0.0 0.0 0.0 0.0 0.0 0.0 0.0 2.4001522169457785 0.0 0.0 0.0 0.0 0.0 0.0 0.0 0.0 0.0 0.0 0.0 0.0 5.0 5.0 0.0 0.0 0.0 1:-0.0666667 2:0.466667 3:-0.2 4:-0.2 5:-0.6 6:0.2 7:0.0666667 8:-0.2 9:-0.466667 10:-0.0666667 11:0.333333 12:-0.0666667 13:-0.0666667 14:0.6 15:-0.6 16:0.0666667 
0.0 0.0 0.0 0.0 0.0 0.0 0.0 0.0 0.0 0.0 0.0 0.0 0.0 0.0 5.0 0.0 0.0 0.0 0.0 0.0 0.0 0.0 0.0 0.0 0.0 1:-0.6 2:0.333333 3:-0.333333 4:-0.0666667 5:-0.733333 6:-0.0666667 7:0.0666667 8:-0.466667 9:-0.6 10:-0.0666667 11:0.866667 12:0.0666667 13:-0.6 14:0.2 15:-1.0 16:0.0666667 
0.0 0.0 0.0 0.0 0.0 0.0 0.0 0.0 0.0 5.0 0.0 0.0 0.0 0.0 0.0 0.0 0.0 0.0 0.0 0.0 0.0 0.0 0.0 0.0 0.0 1:0.2 2:0.733333 3:-0.0666667 4:-0.0666667 5:-0.466667 6:0.2 7:0.333333 8:-0.333333 9:-0.333333 10:-0.2 11:0.333333 12:-0.2 13:-0.333333 14:0.6 15:-0.6 16:-0.2 
0.0 0.0 0.0 0.0 0.0 0.0 5.0 3.2065711710196894 5.0 5.0 0.0 0.0 0.0 0.0 0.0 5.0 0.0 0.0 0.0 0.0 0.0 5.0 0.0 0.0 5.0 1:-0.466667 2:-0.0666667 3:-0.2 4:-0.333333 5:-0.2 6:-0.0666667 7:-0.2 8:-0.466667 9:-0.733333 10:0.0666667 11:0.0666667 12:0.0666667 13:-0.333333 14:0.333333 15:-0.466667 16:-0.0666667 
5.0 4.865866454134178 0.0 5.0 5.0 5.0 5.0 5.0 5.0 5.0 0.38010606496470584 5.0 5.0 0.0 5.0 5.0 5.0 5.0 5.0 5.0 0.0 5.0 5.0 5.0 5.0 1:-0.2 2:0.2 3:0.0666667 4:0.0666667 5:0.2 6:0.0666667 7:-0.0666667 8:-0.333333 9:-0.333333 10:-0.0666667 11:-0.2 12:0.0666667 13:0.0666667 14:0.0666667 15:0.333333 16:-0.6 
0.0 0.0 0.0 0.0 0.0 0.0 0.0 0.0 0.0 5.0 0.0 0.0 0.0 0.0 0.0 0.0 0.0 0.0 0.0 0.0 0.0 0.0 0.0 0.0 0.0 1:-0.466667 2:0.333333 3:-0.333333 4:0.0666667 5:-0.6 6:-0.333333 7:0.466667 8:-0.6 9:-0.6 10:0.2 11:0.6 12:0.2 13:-0.733333 14:0.333333 15:-0.866667 16:0.0666667 
0.0 0.0 0.0 0.0 0.0 0.0 0.0 0.0 0.0 5.0 0.0 0.0 0.0 0.0 0.0 0.0 0.0 0.0 0.0 0.0 0.0 0.0 0.0 0.0 0.0 1:-0.6 2:-0.0666667 3:-0.466667 4:-0.333333 5:-0.733333 6:0.2 7:0.2 8:-0.466667 9:-0.733333 10:-0.333333 11:0.733333 12:0.0666667 13:-0.733333 14:0.333333 15:-1.0 16:0.0666667 
0.0 0.0 0.0 0.0 0.0 2.474038434192569 5.0 0.0 5.0 0.0 0.0 0.0 5.0 0.0 5.0 5.0 0.0 0.0 0.0 0.0 5.0 5.0 0.0 0.0 0.9448952748663044 1:-0.333333 2:0.466667 3:0.0666667 4:0.0666667 5:0.333333 6:0.0666667 7:-0.333333 8:-0.333333 9:-0.733333 10:0.0666667 11:0.0666667 12:0.0666667 13:-0.2 14:0.2 15:-0.466667 16:0.0666667 
5.0 0.0 5.0 5.0 0.0 5.0 5.0 5.0 0.0 0.0 0.0 0.0 3.466732882690439 5.0 5.0 0.0 5.0 0.0 0.0 5.0 5.0 5.0 5.0 5.0 5.0 1:-0.333333 2:0.2 3:-0.0666667 4:0.0666667 5:0.2 6:-0.0666667 7:-0.2 8:-0.333333 9:-0.466667 10:-0.2 11:-0.333333 12:0.0666667 13:-0.0666667 14:0.333333 15:-0.0666667 16:0.2 
0.0 0.0 0.0 0.0 0.0 0.0 0.0 0.0 2.830342737972016 0.0 0.0 0.0 0.0 0.0 0.0 5.0 0.0 0.0 0.0 0.0 0.0 5.0 0.0 0.0 0.0 1:-0.0666667 2:0.333333 3:-0.0666667 4:0.0666667 5:-0.466667 6:-0.466667 7:0.466667 8:-0.733333 9:-0.466667 10:0.2 11:0.466667 12:-0.0666667 13:-0.466667 14:0.2 15:-0.866667 16:-0.0666667 
0.0 0.0 0.0 0.0 1.531622973202077 0.0 0.0 5.0 0.0 0.0 0.0 0.0 0.0 5.0 0.0 0.0 0.0 0.0 0.0 0.0 0.0 0.0 0.0 1.702018039953584 0.0 1:-0.333333 2:0.2 3:-0.2 4:-0.0666667 5:-0.466667 6:0.0666667 7:0.466667 8:-0.6 9:-0.733333 10:-0.333333 11:0.333333 12:0.2 13:-0.733333 14:0.333333 15:-0.6 16:0.2 
1.8386649702316935 0.0 0.0 0.0 0.9350264475095612 5.0 5.0 0.0 2.217820698763384 5.0 5.0 5.0 0.0 0.0 0.0 0.0 0.0 5.0 0.0 0.0 0.0 0.0 0.0 0.0 0.0 1:0.0666667 2:0.866667 3:-0.0666667 4:0.0666667 5:-0.6 6:0.2 7:0.333333 8:-0.466667 9:-0.2 10:-0.2 11:0.466667 12:-0.2 13:-0.466667 14:0.466667 15:-0.6 16:-0.2 
0.0 0.0 0.0 0.0 0.0 0.0 0.0 0.0 0.0 5.0 0.0 0.0 0.0 0.0 0.0 0.0 0.0 0.0 0.0 0.0 0.0 0.0 0.0 0.0 0.0 1:-0.6 2:-0.0666667 3:-0.333333 4:-0.333333 5:-0.733333 6:0.0666667 7:0.2 8:-0.466667 9:-0.866667 10:-0.2 11:0.6 12:0.0666667 13:-0.733333 14:0.333333 15:-1.0 16:0.0666667 
2.068356985031382 0.0 4.620213642741287 0.0 0.0 0.0 0.0 0.0 0.0 0.0 0.0 0.0 0.0 0.0 0.0 0.0 0.0 0.0 0.0 0.0 0.0 0.0 0.0 0.0 0.0 1:-0.466667 2:0.333333 3:-0.2 4:0.0666667 5:-0.6 6:-0.2 7:0.466667 8:-0.6 9:-0.466667 10:-0.0666667 11:0.6 12:0.2 13:-0.733333 14:0.333333 15:-0.866667 16:0.2 
0.0 0.0 0.0 0.0 0.0 0.0 0.0 0.0 0.0 0.0 0.0 0.0 0.0 0.0 0.0 5.0 0.0 0.0 0.0 0.0 0.0 0.0 0.0 0.0 0.0 1:-0.0666667 2:0.333333 3:-0.0666667 4:-0.0666667 5:-0.6 6:-0.466667 7:0.466667 8:-0.733333 9:-0.466667 10:0.2 11:0.466667 12:-0.0666667 13:-0.466667 14:0.333333 15:-0.866667 16:-0.0666667 
0.0 0.0 0.0 0.0 0.0 0.0 0.0 0.0 0.0 5.0 0.0 0.0 0.0 0.0 0.0 0.0 0.0 0.0 0.0 0.0 0.0 0.0 0.0 0.0 0.0 1:-0.466667 2:-0.333333 3:-0.0666667 4:0.0666667 5:-0.733333 6:-0.0666667 7:0.0666667 8:-0.466667 9:-0.6 10:-0.0666667 11:0.866667 12:0.0666667 13:-0.6 14:0.2 15:-1.0 16:0.0666667 
0.0 0.0 0.0 0.0 0.0 0.0 5.0 0.0 0.0 0.0 0.0 0.0 0.0 0.0 0.0 5.0 0.0 0.0 0.0 0.0 0.0 0.0 0.0 0.0 0.0 1:0.0666667 2:0.466667 3:0.0666667 4:-0.2 5:-0.466667 6:-0.0666667 7:0.333333 8:-0.466667 9:-0.333333 10:0.0666667 11:0.2 12:-0.2 13:-0.333333 14:0.466667 15:-0.6 16:-0.0666667 
5.0 5.0 0.0 5.0 5.0 0.0 2.1082883060989888 0.0 5.0 0.0 5.0 5.0 0.0 0.0 0.0 0.0 3.2080679058280084 0.0 0.0 0.0 0.0 0.0 0.0 5.0 0.0 1:-0.466667 2:0.466667 3:-0.2 4:0.2 5:-0.466667 6:-0.0666667 7:0.466667 8:-0.733333 9:-0.466667 10:-0.2 11:0.466667 12:0.2 13:-0.6 14:0.2 15:-0.733333 16:0.0666667 
0.0 0.0 0.0 0.0 0.0 0.0 0.0 0.0 0.0 5.0 0.0 0.0 0.0 0.0 0.0 0.0 0.0 0.0 0.0 0.0 0.0 0.0 0.0 0.0 0.0 1:-0.466667 2:0.466667 3:-0.2 4:0.0666667 5:-0.6 6:-0.0666667 7:0.2 8:-0.466667 9:-0.733333 10:-0.0666667 11:0.733333 12:0.0666667 13:-0.733333 14:0.333333 15:-1.0 16:0.0666667 
0.0 0.0 0.0 0.0 0.0 0.0 0.0 0.0 0.0 0.0 0.0 0.0 0.0 0.0 0.0 0.0 0.0 0.0 0.0 0.0 0.0 0.0 5.0 0.0 5.0 1:-0.2 2:0.466667 3:-0.2 4:-0.2 5:-0.6 6:-0.333333 7:0.333333 8:-0.466667 9:-0.6 10:0.333333 11:0.0666667 12:-0.333333 13:-0.466667 14:0.466667 15:-0.733333 16:0.0666667 
0.0 0.0 0.0 0.0 0.0 0.0 5.0 5.0 0.0 0.0 0.0 0.0 0.0 5.0 0.0 0.0 5.0 0.0 5.0 5.0 5.0 1.5339913236504628 5.0 1.21077403414672 5.0 1:-0.333333 2:0.333333 3:-0.0666667 4:-0.0666667 5:0.0666667 6:0.0666667 7:-0.0666667 8:-0.333333 9:-0.733333 10:0.0666667 11:-0.0666667 12:0.0666667 13:-0.333333 14:0.333333 15:-0.333333 16:0.0666667 
0.0 0.0 0.0 0.0 0.0 0.0 0.0 0.0 0.0 0.0 0.0 0.0 0.0 0.0 0.0 0.0 0.0 0.0 0.0 0.0 0.0 5.0 0.0 0.0 0.0 1:0.0666667 2:0.466667 3:0.0666667 4:0.0666667 5:-0.333333 6:-0.6 7:0.6 8:-0.733333 9:-0.6 10:0.2 11:0.466667 12:0.0666667 13:-0.2 14:0.466667 15:-0.6 16:-0.2 
0.0 0.0 0.0 0.0 0.0 0.0 0.0 0.0 0.0 0.0 0.0 0.0 0.0 0.0 0.0 0.0 0.0 0.0 0.0 0.0 0.0 5.0 0.0 0.0 0.0 1:-0.466667 2:-0.466667 3:-0.333333 4:-0.6 5:-0.733333 6:-0.333333 7:0.6 8:-0.733333 9:-0.6 10:0.2 11:0.466667 12:-0.0666667 13:-0.466667 14:0.466667 15:-0.866667 16:-0.0666667 
5.0 5.0 5.0 5.0 5.0 5.0 5.0 5.0 5.0 0.0 5.0 5.0 5.0 5.0 5.0 5.0 5.0 5.0 5.0 5.0 5.0 5.0 5.0 5.0 5.0 1:-0.0666667 2:0.2 3:0.2 4:0.0666667 5:0.333333 6:-0.0666667 7:0.0666667 8:-0.333333 9:-0.2 10:0.0666667 11:-0.2 12:0.0666667 13:-0.0666667 14:-0.0666667 15:0.0666667 16:0.0666667 
0.0 0.0 0.0 0.0 0.0 0.0 0.0 0.0 0.0 0.0 0.0 0.0 5.0 0.0 0.0 5.0 0.0 0.0 0.0 0.0 0.0 5.0 0.0 0.0 0.0 1:0.0666667 2:0.466667 3:0.0666667 4:0.0666667 5:-0.466667 6:-0.466667 7:0.6 8:-0.733333 9:-0.466667 10:0.0666667 11:0.466667 12:-0.0666667 13:-0.2 14:0.333333 15:-0.866667 16:-0.0666667 
0.0 0.0 0.0 0.0 0.0 0.0 5.0 0.0 0.0 0.0 0.0 0.0 0.0 0.0 0.0 0.0 0.0 0.0 0.0 0.0 0.0 5.0 0.0 0.0 5.0 1:-0.333333 2:0.2 3:0.0666667 4:-0.2 5:0.0666667 6:-0.0666667 7:-0.0666667 8:-0.466667 9:-0.733333 10:0.0666667 11:0.0666667 12:0.0666667 13:-0.333333 14:0.333333 15:-0.466667 16:0.0666667 
0.0 0.0 0.0 0.0 0.0 0.0 0.0 0.0 0.0 0.0 0.0 0.0 0.0 0.0 0.0 0.0 0.0 0.0 0.0 0.0 0.0 5.0 0.0 0.0 0.0 1:-0.2 2:0.0666667 3:-0.333333 4:-0.2 5:-0.6 6:-0.466667 7:0.6 8:-0.866667 9:-0.733333 10:0.0666667 11:0.333333 12:-0.0666667 13:-0.466667 14:0.6 15:-0.866667 16:0.0666667 
0.0 0.0 0.0 0.0 0.0 0.0 0.0 0.0 0.0 0.0 0.0 0.0 0.0 0.0 0.0 0.0 0.0 0.0 0.0 0.0 5.0 0.0 0.0 0.0 5.0 1:-0.2 2:0.6 3:-0.333333 4:-0.0666667 5:-0.6 6:-0.0666667 7:0.333333 8:-0.2 9:-0.466667 10:0.2 11:0.2 12:-0.333333 13:-0.333333 14:0.6 15:-0.6 16:0.0666667 
0.0 0.0 0.0 0.0 0.0 0.0 0.0 0.0 0.0 0.0 0.0 0.0 0.0 0.0 0.0 5.0 0.0 0.0 0.0 0.0 0.0 5.0 0.0 0.0 0.0 1:0.0666667 2:0.466667 3:0.0666667 4:0.0666667 5:-0.333333 6:-0.6 7:0.6 8:-0.733333 9:-0.6 10:0.2 11:0.333333 12:-0.0666667 13:-0.333333 14:0.466667 15:-0.733333 16:-0.2 
0.0 0.0 0.0 0.0 0.0 0.0 0.0 0.0 0.0 0.0 0.0 5.0 0.0 0.0 0.0 0.0 0.0 0.0 0.0 0.0 0.0 0.0 5.0 0.0 5.0 1:-0.6 2:-0.6 3:-0.466667 4:-0.733333 5:-0.866667 6:-0.333333 7:0.733333 8:-0.466667 9:-0.6 10:0.333333 11:0.466667 12:-0.2 13:-0.733333 14:0.333333 15:-0.866667 16:0.0666667 
0.0 0.0 0.0 0.0 0.0 0.0 0.0 0.0 0.0 5.0 0.0 0.0 0.0 0.0 0.0 0.0 0.0 0.0 0.0 0.0 0.0 0.0 0.0 0.0 0.0 1:-0.6 2:-0.466667 3:-0.333333 4:-0.2 5:-0.866667 6:0.0666667 7:0.0666667 8:-0.466667 9:-0.6 10:-0.0666667 11:0.866667 12:0.0666667 13:-0.6 14:0.2 15:-1.0 16:0.0666667 
0.0 0.0 0.0 0.0 0.0 0.0 0.0 0.0 0.0 5.0 0.0 0.0 0.0 2.6149119891480215 0.0 0.0 0.0 0.0 0.0 0.0 0.0 0.0 0.0 0.0 0.0 1:-0.6 2:-0.466667 3:-0.333333 4:-0.0666667 5:-0.866667 6:0.0666667 7:0.0666667 8:-0.466667 9:-0.6 10:-0.2 11:0.866667 12:0.0666667 13:-0.6 14:0.2 15:-1.0 16:0.0666667 
0.0 0.0 0.0 0.0 0.0 0.0 0.0 0.0 0.0 5.0 0.0 0.0 0.0 0.0 0.0 0.0 0.0 0.0 0.0 0.0 0.0 0.0 0.0 0.0 0.0 1:-0.6 2:-0.0666667 3:-0.333333 4:-0.333333 5:-0.6 6:0.2 7:0.466667 8:-0.733333 9:-0.733333 10:-0.466667 11:0.333333 12:0.0666667 13:-0.733333 14:0.6 15:-0.866667 16:0.0666667 
0.0 0.0 0.0 0.0 0.0 0.0 0.0 0.0 0.0 5.0 0.0 0.0 0.0 0.0 0.0 0.0 1.7453828534973674 0.0 0.0 0.0 0.0 0.0 0.0 0.0 0.0 1:-0.466667 2:0.2 3:-0.333333 4:-0.0666667 5:-0.466667 6:0.2 7:0.466667 8:-0.733333 9:-0.6 10:-0.466667 11:0.333333 12:0.0666667 13:-0.6 14:0.333333 15:-0.733333 16:0.0666667 
0.0 0.0 0.0 0.0 0.0 0.0 0.0 0.0 0.0 5.0 0.0 0.0 0.0 0.0 0.0 0.0 0.0 0.0 0.0 0.0 0.0 0.0 0.0 0.0 0.0 1:-0.6 2:0.2 3:-0.333333 4:-0.0666667 5:-0.866667 6:0.333333 7:0.0666667 8:-0.466667 9:-0.6 10:-0.333333 11:0.866667 12:0.0666667 13:-0.6 14:0.333333 15:-1.0 16:0.0666667 
5.0 5.0 3.455061575769666 5.0 5.0 5.0 5.0 5.0 5.0 5.0 5.0 4.9006526240115 5.0 5.0 5.0 5.0 5.0 5.0 5.0 5.0 5.0 0.0 5.0 5.0 5.0 1:-0.466667 2:0.0666667 3:-0.2 4:-0.0666667 5:-0.0666667 6:0.0666667 7:-0.0666667 8:-0.466667 9:-0.466667 10:-0.0666667 11:-0.2 12:0.0666667 13:-0.0666667 14:-0.0666667 15:0.2 16:-0.333333 
0.0 0.0 0.2907509185547404 5.0 0.0 0.0 0.0 0.0 0.0 0.0 0.0 0.0 0.0 0.0 0.0 0.0 0.0 0.0 0.0 0.0 0.0 0.0 0.0 0.0 0.0 1:-0.466667 2:0.2 3:-0.2 4:-0.2 5:-0.6 6:-0.466667 7:0.466667 8:-0.6 9:-0.466667 10:0.2 11:0.6 12:0.2 13:-0.6 14:0.333333 15:-0.866667 16:0.0666667 
0.0 0.0 0.0 0.0 0.0 0.0 0.0 0.0 0.0 0.0 0.0 0.0 0.0 0.0 0.0 0.0 0.0 0.0 0.0 0.0 0.0 0.0 1.7410326842588768 0.0 0.0 1:-0.6 2:-0.333333 3:-0.333333 4:-0.466667 5:-0.733333 6:-0.466667 7:0.6 8:-0.6 9:-0.6 10:0.2 11:0.466667 12:-0.0666667 13:-0.733333 14:0.333333 15:-0.866667 16:0.0666667 
0.0 0.0 5.0 5.0 0.0 0.0 0.0 0.0 0.0 0.0 0.0 0.0 0.0 0.0 0.0 0.0 0.0 0.0 0.0 0.0 0.0 0.0 0.0 0.0 0.0 1:-0.6 2:0.0666667 3:-0.333333 4:-0.2 5:-0.733333 6:-0.333333 7:0.466667 8:-0.6 9:-0.466667 10:0.2 11:0.6 12:0.2 13:-0.6 14:0.333333 15:-0.866667 16:0.2 
0.0 0.0 0.0 0.0 0.0 0.0 0.0 0.0 0.0 5.0 0.0 0.0 0.0 0.0 0.0 0.0 0.0 0.0 0.0 0.0 0.0 0.0 0.0 0.0 0.0 1:-0.0666667 2:0.733333 3:-0.0666667 4:-0.0666667 5:-0.466667 6:0.2 7:0.0666667 8:-0.466667 9:-0.466667 10:0.0666667 11:0.0666667 12:-0.333333 13:-0.2 14:0.733333 15:-0.6 16:-0.0666667 
0.0 0.0 0.0 0.0 0.0 0.0 0.0 0.0 0.0 2.486723945678416 0.0 0.0 0.0 0.0 0.0 0.0 0.0 0.0 0.0 0.0 0.0 0.0 0.0 0.0 0.0 1:-0.6 2:-0.333333 3:-0.2 4:-0.466667 5:-0.733333 6:-0.0666667 7:0.6 8:-0.733333 9:-0.6 10:-0.2 11:0.466667 12:0.2 13:-0.466667 14:0.6 15:-0.733333 16:-0.0666667 
0.0 0.0 0.0 0.0 0.0 0.0 0.0 0.0 0.0 5.0 0.0 0.0 0.0 0.0 0.0 0.0 0.0 0.0 0.0 0.0 0.0 0.0 0.0 0.0 0.0 1:-0.733333 2:-0.6 3:-0.466667 4:-0.333333 5:-0.866667 6:0.2 7:0.0666667 8:-0.466667 9:-0.733333 10:-0.2 11:0.733333 12:0.0666667 13:-0.6 14:0.333333 15:-1.0 16:0.0666667 
0.0 0.0 0.0 0.0 0.0 0.0 0.0 0.0 0.0 0.0 0.0 5.0 0.0 0.0 0.0 0.0 0.0 0.0 0.0 0.0 0.0 0.0 0.0 0.0 0.0 1:-0.466667 2:0.2 3:-0.2 4:-0.0666667 5:-0.6 6:0.0666667 7:0.466667 8:-0.6 9:-0.466667 10:-0.333333 11:0.466667 12:0.0666667 13:-0.6 14:0.333333 15:-0.866667 16:0.0666667 
0.0 0.0 0.0 0.0 0.0 0.0 0.0 0.0 0.0 5.0 0.0 0.0 0.0 0.0 0.0 0.0 0.0 0.0 0.0 0.0 0.0 0.0 0.0 0.0 0.0 1:-0.466667 2:-0.466667 3:-0.2 4:-0.0666667 5:-0.866667 6:0.0666667 7:0.0666667 8:-0.466667 9:-0.6 10:-0.0666667 11:0.866667 12:0.0666667 13:-0.6 14:0.2 15:-1.0 16:0.0666667 
0.0 0.0 5.0 5.0 0.0 0.0 5.0 1.1443131201749879 0.0 0.0 0.0 5.0 0.0 0.0 5.0 0.0 0.0 0.0 5.0 0.0 0.0 0.0 5.0 5.0 0.0 1:-0.0666667 2:0.333333 3:-0.2 4:0.0666667 5:-0.6 6:-0.733333 7:0.466667 8:-0.333333 9:-0.333333 10:0.6 11:0.6 12:0.0666667 13:-0.733333 14:0.333333 15:-0.866667 16:0.0666667 
2.8314070616279197 0.0 5.0 0.0 0.0 0.0 5.0 5.0 5.0 0.0 5.0 0.0 0.0 5.0 0.0 5.0 5.0 0.0 0.0 5.0 5.0 5.0 5.0 0.0 5.0 1:-0.733333 2:-0.2 3:-0.466667 4:-0.466667 5:-0.466667 6:0.0666667 7:-0.0666667 8:-0.466667 9:-0.733333 10:0.0666667 11:-0.0666667 12:0.0666667 13:-0.333333 14:0.333333 15:-0.466667 16:-0.0666667 
5.0 0.0 5.0 5.0 5.0 1.9146615171878179 5.0 5.0 5.0 5.0 5.0 3.0793028283230086 0.0 5.0 0.0 5.0 5.0 0.0 5.0 5.0 0.0 0.0 5.0 5.0 5.0 1:-0.466667 2:-0.2 3:-0.2 4:-0.333333 5:-0.2 6:-0.0666667 7:-0.0666667 8:-0.466667 9:-0.466667 10:-0.0666667 11:-0.2 12:0.0666667 13:-0.2 14:0.333333 15:-0.0666667 16:-0.0666667 
5.0 0.0 5.0 5.0 0.0 5.0 5.0 5.0 5.0 5.0 1.4073748880820254 5.0 5.0 0.0 5.0 5.0 5.0 0.0 0.0 5.0 5.0 5.0 0.0 5.0 5.0 1:-0.333333 2:-0.0666667 3:-0.0666667 4:-0.2 5:-0.0666667 6:0.0666667 7:-0.2 8:-0.333333 9:-0.333333 10:-0.0666667 11:-0.2 12:0.0666667 13:-0.0666667 14:0.333333 15:-0.2 16:-0.0666667 
0.0 0.0 0.0 0.0 0.0 0.0 0.0 0.0 0.0 5.0 0.0 0.0 0.0 0.0 0.0 0.0 0.0 0.0 0.0 0.0 0.0 0.0 0.0 0.0 0.0 1:-0.6 2:-0.466667 3:-0.333333 4:-0.2 5:-0.866667 6:0.2 7:0.0666667 8:-0.466667 9:-0.6 10:-0.2 11:0.866667 12:0.0666667 13:-0.6 14:0.333333 15:-1.0 16:0.0666667 
0.0 0.0 0.0 0.0 0.0 0.0 0.0 0.0 0.0 0.0 0.0 0.0 0.0 0.0 0.0 0.0 0.0 0.0 0.0 0.0 0.0 5.0 0.0 0.0 0.0 1:-0.6 2:-0.333333 3:-0.466667 4:-0.6 5:-0.866667 6:-0.466667 7:0.6 8:-0.466667 9:-0.6 10:0.333333 11:0.466667 12:-0.0666667 13:-0.6 14:0.333333 15:-0.866667 16:0.0666667 
0.0 0.0 0.0 0.0 0.0 0.0 0.0 0.0 0.0 5.0 0.0 0.0 0.0 0.0 5.0 0.0 0.0 0.0 0.0 0.0 0.0 0.0 0.0 0.0 0.0 1:-0.866667 2:-1.0 3:-0.733333 4:-1.0 5:-1.0 6:-0.0666667 7:0.2 8:-0.6 9:-0.733333 10:-0.0666667 11:0.6 12:0.0666667 13:-0.733333 14:0.333333 15:-1.0 16:0.0666667 
0.0 0.0 0.0 0.0 0.0 0.0 0.0 0.0 0.0 5.0 0.0 0.0 0.0 0.0 0.0 0.0 0.0 0.0 0.0 0.0 0.0 0.0 0.0 0.0 0.0 1:-0.866667 2:-1.0 3:-0.733333 4:-0.866667 5:-1.0 6:0.0666667 7:0.2 8:-0.6 9:-0.733333 10:-0.0666667 11:0.6 12:0.0666667 13:-0.733333 14:0.466667 15:-1.0 16:0.0666667 
0.0 0.0 0.0 0.0 0.0 0.0 0.0 0.0 0.0 5.0 0.0 0.0 0.0 0.0 0.0 0.0 0.0 0.0 0.0 0.0 0.0 0.0 0.0 0.0 0.0 1:-0.6 2:-0.0666667 3:-0.466667 4:-0.333333 5:-0.733333 6:0.0666667 7:0.2 8:-0.6 9:-0.866667 10:-0.0666667 11:0.6 12:0.0666667 13:-0.733333 14:0.333333 15:-1.0 16:0.0666667 
0.0 0.0 0.0 0.0 0.0 0.0 5.0 0.0 0.0 0.0 0.0 0.0 0.0 0.0 0.0 0.0 0.0 0.0 0.0 0.10848181552256879 0.0 5.0 0.0 0.0 0.0 1:-0.333333 2:0.2 3:0.0666667 4:-0.2 5:0.0666667 6:0.0666667 7:-0.0666667 8:-0.466667 9:-0.733333 10:-0.0666667 11:0.0666667 12:0.0666667 13:-0.333333 14:0.333333 15:-0.466667 16:0.0666667 
0.0 0.0 0.0 0.0 0.0 0.0 0.0 0.0 0.0 5.0 0.0 0.0 0.0 0.0 0.0 0.0 0.0 0.0 0.0 0.0 0.0 0.0 0.0 0.0 0.0 1:-0.866667 2:-0.866667 3:-0.733333 4:-0.866667 5:-1.0 6:-0.0666667 7:0.2 8:-0.466667 9:-0.733333 10:-0.0666667 11:0.733333 12:0.0666667 13:-0.733333 14:0.333333 15:-1.0 16:0.0666667 
0.0 0.0 0.0 5.0 0.0 0.0 0.0 0.0 0.0 5.0 5.0 0.0 0.0 0.0 0.0 0.0 0.0 0.0 0.0 0.0 0.0 0.0 0.0 5.0 0.0 1:-0.333333 2:0.466667 3:0.0666667 4:0.0666667 5:-0.466667 6:-0.2 7:0.466667 8:-0.733333 9:-0.466667 10:0.0666667 11:0.6 12:0.2 13:-0.6 14:0.333333 15:-0.733333 16:0.0666667 
0.0 0.0 0.0 0.0 0.0 0.0 0.0 0.0 0.0 5.0 0.0 0.0 0.0 0.0 0.0 0.0 0.0 0.0 0.0 0.0 0.0 0.0 0.0 0.0 0.0 1:-0.466667 2:0.333333 3:-0.2 4:0.0666667 5:-0.466667 6:-0.0666667 7:0.466667 8:-0.866667 9:-0.6 10:-0.2 11:0.333333 12:0.2 13:-0.6 14:0.466667 15:-0.866667 16:0.0666667 
0.0 0.0 0.0 0.0 0.0 0.0 0.0 0.0 0.0 5.0 0.0 0.0 0.0 0.0 0.0 0.0 0.0 0.0 0.0 0.0 0.0 0.0 0.0 0.0 0.0 1:-0.6 2:-0.466667 3:-0.466667 4:-0.6 5:-0.866667 6:-0.466667 7:0.6 8:-0.6 9:-0.6 10:0.333333 11:0.466667 12:-0.0666667 13:-0.733333 14:0.466667 15:-0.866667 16:0.0666667 
0.0 0.0 0.0 0.0 0.0 0.0 0.0 0.0 0.0 5.0 0.0 0.0 0.0 0.0 0.0 0.0 0.0 0.0 0.0 0.0 0.0 0.0 0.0 0.0 0.0 1:-0.6 2:-0.466667 3:-0.466667 4:-0.6 5:-0.733333 6:-0.333333 7:0.6 8:-0.6 9:-0.6 10:0.2 11:0.466667 12:-0.0666667 13:-0.733333 14:0.466667 15:-0.866667 16:0.0666667 
0.0 0.0 0.0 0.0 0.0 2.6160780378101096 4.882043454106812 5.0 0.0 0.0 0.0 0.0 0.0 0.0 0.0 0.0 0.0 0.0 5.0 0.0 5.0 0.0 5.0 0.0 5.0 1:-0.0666667 2:0.333333 3:-0.333333 4:-0.333333 5:-0.733333 6:-0.2 7:0.466667 8:-0.333333 9:-0.466667 10:0.466667 11:0.2 12:-0.466667 13:-0.466667 14:0.466667 15:-0.6 16:0.333333 
0.0 0.0 0.0 3.273719787048494 0.0 0.0 0.0 0.0 0.0 5.0 0.0 5.0 0.0 0.0 0.0 0.0 0.0 0.0 0.0 0.0 0.0 0.0 0.0 0.0 0.0 1:-0.733333 2:-0.466667 3:-0.466667 4:-0.6 5:-0.866667 6:-0.0666667 7:0.6 8:-0.733333 9:-0.6 10:-0.2 11:0.466667 12:0.2 13:-0.733333 14:0.333333 15:-0.866667 16:0.0666667 
0.0 0.0 0.0 0.0 0.0 0.0 0.0 0.0 0.0 5.0 0.0 0.0 0.0 0.0 0.0 0.0 0.0 0.0 0.0 0.0 0.0 0.0 0.0 0.0 0.0 1:-0.6 2:0.0666667 3:-0.333333 4:-0.2 5:-0.866667 6:0.0666667 7:0.0666667 8:-0.466667 9:-0.6 10:-0.2 11:0.866667 12:0.0666667 13:-0.6 14:0.333333 15:-1.0 16:0.0666667 
5.0 0.0 5.0 5.0 5.0 5.0 5.0 5.0 5.0 0.0 5.0 5.0 5.0 5.0 5.0 5.0 5.0 0.0 5.0 5.0 5.0 5.0 5.0 5.0 5.0 1:-0.466667 2:-0.333333 3:-0.2 4:-0.466667 5:-0.2 6:-0.0666667 7:-0.0666667 8:-0.333333 9:-0.466667 10:-0.0666667 11:-0.2 12:0.0666667 13:-0.2 14:0.2 15:-0.0666667 16:-0.0666667 
0.0 0.0 0.0 0.0 0.0 0.0 0.0 0.0 0.0 5.0 0.0 0.0 0.0 0.0 0.0 0.0 0.0 0.0 0.0 0.0 0.0 0.0 0.0 0.0 0.0 1:-0.466667 2:-0.0666667 3:-0.333333 4:-0.333333 5:-0.733333 6:0.2 7:0.6 8:-0.733333 9:-0.6 10:-0.466667 11:0.466667 12:0.2 13:-0.6 14:0.6 15:-0.866667 16:-0.0666667 
0.0 0.0 0.0 0.0 0.0 0.0 0.0 0.0 0.0 0.0 0.0 0.0 0.0 0.0 0.0 0.0 0.0 0.0 0.0 0.0 0.0 5.0 0.0 0.0 0.0 1:-0.2 2:0.0666667 3:-0.2 4:-0.2 5:-0.466667 6:-0.6 7:0.6 8:-0.733333 9:-0.6 10:0.2 11:0.466667 12:0.0666667 13:-0.466667 14:0.6 15:-0.866667 16:-0.0666667 
0.0 0.0 0.0 0.0 0.0 0.0 0.0 0.0 0.0 0.0 0.0 0.0 0.0 0.0 0.0 0.0 0.0 0.0 0.0 0.0 0.0 1.0510133428394581 0.0 0.0 0.0 1:-0.2 2:0.0666667 3:0.0666667 4:-0.2 5:-0.333333 6:-0.2 7:0.6 8:-0.6 9:-0.733333 10:0.0666667 11:0.333333 12:0.0666667 13:-0.2 14:0.466667 15:-0.2 16:0.0666667 
0.0 0.0 0.0 0.0 0.0 0.0 5.0 5.0 0.0 5.0 4.697663907968121 0.0 0.0 5.0 0.0 0.0 0.0 1.744169937622402 5.0 0.0 0.0 0.0 0.0 5.0 0.0 1:-0.6 2:-0.2 3:-0.466667 4:-0.466667 5:-0.733333 6:-0.0666667 7:0.466667 8:-0.6 9:-0.733333 10:-0.0666667 11:0.333333 12:0.2 13:-0.733333 14:0.333333 15:-0.6 16:0.0666667 
0.0 0.0 0.0 0.0 0.0 0.0934691428170282 0.0 0.0 0.0 0.0 0.0 0.0 0.0 0.0 0.0 0.0 0.0 0.0 0.0 0.0 0.0 0.0 0.0 0.0 5.0 1:-0.0666667 2:0.733333 3:-0.333333 4:-0.0666667 5:-0.6 6:-0.0666667 7:0.333333 8:-0.2 9:-0.466667 10:0.2 11:0.2 12:-0.466667 13:-0.333333 14:0.6 15:-0.6 16:0.0666667 
5.0 0.0 0.0 0.0 0.0 0.0 0.0 0.0 0.0 0.0 0.0 0.0 0.0 0.0 0.0 0.0 0.0 0.0 0.0 0.0 0.0 0.0 0.0 0.0 0.0 1:-0.466667 2:0.466667 3:-0.2 4:0.0666667 5:-0.333333 6:0.0666667 7:0.466667 8:-0.733333 9:-0.6 10:-0.466667 11:0.333333 12:0.2 13:-0.466667 14:0.6 15:-0.733333 16:0.0666667 
5.0 5.0 5.0 5.0 5.0 5.0 5.0 5.0 5.0 0.0 5.0 5.0 5.0 5.0 5.0 5.0 5.0 5.0 0.0 5.0 5.0 5.0 5.0 5.0 5.0 1:-0.466667 2:-0.2 3:-0.333333 4:-0.2 5:-0.2 6:-0.0666667 7:0.0666667 8:-0.333333 9:-0.333333 10:-0.0666667 11:-0.2 12:0.0666667 13:-0.2 14:0.0666667 15:-0.2 16:-0.2 
0.0 0.0 0.0 0.0 0.0 0.0 0.0 5.0 0.0 0.0 0.0 0.0 0.0 0.0 0.0 0.0 0.0 0.0 0.0 0.0 0.0 0.0 0.0 4.314309189199209 0.0 1:-0.2 2:0.466667 3:0.0666667 4:0.0666667 5:-0.333333 6:-0.2 7:0.466667 8:-0.6 9:-0.733333 10:-0.0666667 11:0.466667 12:0.0666667 13:-0.466667 14:0.333333 15:-0.333333 16:0.2 
0.0 0.0 0.0 0.0 0.0 0.0 0.0 0.0 0.0 0.0 0.0 0.0 0.0 0.0 0.0 0.0 0.0 0.0 0.0 0.0 0.0 0.0 5.0 0.0 0.0 1:-0.466667 2:-0.333333 3:-0.2 4:-0.466667 5:-0.733333 6:-0.466667 7:0.6 8:-0.6 9:-0.6 10:0.333333 11:0.466667 12:-0.0666667 13:-0.733333 14:0.333333 15:-0.866667 16:0.0666667 
0.0 0.0 0.0 0.0 0.0 0.0 5.0 0.0 0.0 0.0 0.0 0.0 0.0 0.0 0.0 0.0 0.0 0.0 0.0 0.0 0.0 0.0 0.0 0.0 0.0 1:-0.466667 2:-0.2 3:-0.333333 4:-0.466667 5:-0.733333 6:-0.0666667 7:0.466667 8:-0.6 9:-0.6 10:0.0666667 11:0.466667 12:0.0666667 13:-0.6 14:0.333333 15:-0.6 16:0.0666667 
0.0 0.0 0.0 0.0 0.0 0.0 5.0 5.0 0.0 0.0 0.0 0.0 0.0 0.0 0.0 0.0 0.0 0.0 0.0 5.0 0.0 5.0 0.0 0.0 5.0 1:-0.466667 2:-0.0666667 3:-0.2 4:-0.333333 5:-0.2 6:0.0666667 7:0.0666667 8:-0.466667 9:-0.733333 10:0.0666667 11:-0.0666667 12:0.0666667 13:-0.0666667 14:0.466667 15:-0.333333 16:0.0666667 
0.0 0.0 0.0 5.0 0.0 5.0 5.0 0.0 0.0 0.0 5.0 5.0 0.0 0.0 5.0 5.0 2.7129834714859644 0.0 0.0 0.0 0.7365157290967356 0.0 5.0 0.0 0.0 1:0.0666667 2:0.733333 3:-0.0666667 4:-0.0666667 5:-0.466667 6:-0.333333 7:0.333333 8:-0.466667 9:-0.333333 10:0.2 11:0.2 12:-0.333333 13:-0.466667 14:0.333333 15:-0.733333 16:0.0666667 
0.0 0.0 0.0 0.0 0.0 0.0 0.0 0.0 0.0 0.0 0.0 0.0 3.7192093706053266 0.0 0.0 5.0 0.0 0.0 0.0 0.0 0.0 5.0 0.0 0.0 0.0 1:-0.466667 2:-0.333333 3:-0.333333 4:-0.6 5:-0.733333 6:-0.466667 7:0.6 8:-0.733333 9:-0.6 10:0.2 11:0.466667 12:-0.0666667 13:-0.466667 14:0.333333 15:-0.866667 16:-0.0666667 
0.0 0.0 0.0 0.0 0.0 0.0 0.0 0.0 0.0 5.0 0.0 0.0 0.0 0.0 0.0 0.0 0.0 0.0 0.0 0.0 0.0 0.0 0.0 0.0 0.0 1:-0.733333 2:-0.866667 3:-0.6 4:-0.733333 5:-0.866667 6:-0.0666667 7:0.6 8:-0.733333 9:-0.733333 10:-0.0666667 11:0.466667 12:0.0666667 13:-0.733333 14:0.466667 15:-1.0 16:0.0666667 
0.0 0.0 0.0 0.0 0.0 0.0 0.0 0.0 0.0 5.0 0.0 0.0 0.0 0.0 0.0 0.0 0.0 0.0 0.0 0.0 0.0 0.0 0.0 0.0 0.0 1:-0.866667 2:-1.0 3:-0.733333 4:-0.866667 5:-1.0 6:0.0666667 7:0.2 8:-0.6 9:-0.733333 10:-0.0666667 11:0.6 12:0.0666667 13:-0.733333 14:0.333333 15:-1.0 16:0.0666667 
0.0 0.0 0.0 0.0 0.0 0.0 0.0 0.0 0.0 5.0 0.0 0.0 0.0 0.0 0.0 0.0 0.0 0.0 0.0 0.0 0.0 0.0 0.0 0.0 0.0 1:-0.866667 2:-1.0 3:-0.733333 4:-1.0 5:-1.0 6:0.0666667 7:0.2 8:-0.6 9:-0.866667 10:-0.2 11:0.6 12:0.0666667 13:-0.733333 14:0.466667 15:-1.0 16:0.0666667 
0.0 0.0 0.0 0.0 0.0 0.0 0.0 0.0 0.0 5.0 0.0 0.0 0.0 0.0 0.0 0.0 0.0 0.0 0.0 0.0 0.0 0.0 0.0 0.0 0.0 1:-0.6 2:-0.6 3:-0.333333 4:-0.466667 5:-0.866667 6:0.0666667 7:0.0666667 8:-0.466667 9:-0.733333 10:-0.2 11:0.866667 12:0.0666667 13:-0.6 14:0.333333 15:-1.0 16:0.0666667 
0.0 0.0 0.0 0.0 0.0 0.0 0.0 0.0 0.0 5.0 0.0 0.0 0.0 0.0 0.0 0.0 0.0 0.0 0.0 0.0 0.0 0.0 0.0 0.0 0.0 1:-0.866667 2:-1.0 3:-0.733333 4:-0.866667 5:-1.0 6:-0.0666667 7:0.2 8:-0.6 9:-0.733333 10:-0.0666667 11:0.6 12:0.0666667 13:-0.733333 14:0.333333 15:-1.0 16:0.0666667 
0.0 0.0 0.0 0.0 0.0 0.0 0.7961309085713337 0.0 0.0 0.0 0.0 5.0 0.0 0.0 0.0 5.0 0.0 0.0 0.0 0.0 5.0 0.0 5.0 0.0 0.0 1:-0.466667 2:-0.0666667 3:-0.466667 4:-0.333333 5:-0.733333 6:-0.6 7:0.6 8:-0.333333 9:-0.466667 10:0.6 11:0.466667 12:-0.0666667 13:-0.6 14:0.333333 15:-0.866667 16:0.0666667 
5.0 0.35984111449615075 0.0 0.0 0.0 0.0 0.0 0.0 0.0 5.0 0.0 5.0 0.0 0.0 0.0 0.0 0.0 0.0 0.0 0.0 0.0 0.0 0.0 0.0 0.0 1:-0.6 2:0.466667 3:-0.333333 4:0.0666667 5:-0.466667 6:-0.0666667 7:0.466667 8:-0.733333 9:-0.6 10:-0.2 11:0.466667 12:0.2 13:-0.733333 14:0.333333 15:-0.866667 16:0.0666667 
0.0 0.0 0.0 0.0 0.0 0.0 0.0 5.0 0.0 0.0 0.0 0.0 0.0 0.0 0.0 0.0 0.0 0.0 0.0 0.0 5.0 0.0 0.0 0.0 0.0 1:-0.2 2:0.2 3:-0.333333 4:-0.466667 5:-0.733333 6:-0.0666667 7:0.333333 8:-0.0666667 9:-0.6 10:0.2 11:0.2 12:-0.333333 13:-0.333333 14:0.6 15:-0.6 16:0.2 
0.0 0.0 0.0 0.0 0.0 0.0 0.0 0.0 0.0 0.0 0.0 0.0 0.0 0.0 0.0 0.0 0.0 0.0 0.0 0.0 0.0 5.0 0.0 0.0 0.0 1:-0.333333 2:-0.2 3:-0.333333 4:-0.466667 5:-0.6 6:-0.466667 7:0.6 8:-0.866667 9:-0.733333 10:0.0666667 11:0.333333 12:-0.0666667 13:-0.6 14:0.466667 15:-0.866667 16:-0.0666667 
0.0 0.0 0.0 0.0 0.0 0.0 0.0 0.0 0.0 0.0 0.0 0.0 0.0 0.0 0.0 0.0 0.0 0.0 0.0 0.0 0.0 0.0 5.0 0.0 0.0 1:-0.6 2:-0.333333 3:-0.466667 4:-0.6 5:-0.866667 6:-0.466667 7:0.6 8:-0.6 9:-0.6 10:0.333333 11:0.466667 12:-0.0666667 13:-0.733333 14:0.333333 15:-0.866667 16:0.0666667 
0.0 5.0 0.0 0.0 5.0 5.0 5.0 0.0 5.0 5.0 5.0 5.0 0.0 0.0 5.0 1.483886882211274 0.0 0.0 5.0 5.0 0.0 0.0 0.0 0.0 0.0 1:-0.333333 2:0.2 3:-0.333333 4:-0.466667 5:-0.6 6:0.333333 7:-0.0666667 8:-0.466667 9:-0.333333 10:-0.0666667 11:0.2 12:-0.333333 13:-0.466667 14:0.466667 15:-0.733333 16:-0.0666667 
0.0 0.0 5.0 5.0 3.7273430099202365 5.0 5.0 5.0 5.0 0.0 0.0 0.0 5.0 5.0 5.0 5.0 5.0 0.0 4.26008364493679 5.0 5.0 5.0 0.0 0.0 5.0 1:-0.333333 2:0.466667 3:-0.0666667 4:0.0666667 5:0.2 6:0.0666667 7:-0.333333 8:-0.333333 9:-0.733333 10:0.0666667 11:-0.0666667 12:0.0666667 13:-0.2 14:0.0666667 15:-0.333333 16:0.0666667 
0.0 0.0 0.0 0.0 0.0 0.0 0.0 0.0 0.0 5.0 0.0 0.0 0.0 0.0 0.0 0.0 0.0 0.0 0.0 0.0 0.0 0.0 0.0 0.0 0.0 1:-0.733333 2:-0.0666667 3:-0.466667 4:-0.333333 5:-0.733333 6:-0.0666667 7:0.2 8:-0.6 9:-0.866667 10:0.0666667 11:0.6 12:0.0666667 13:-0.733333 14:0.466667 15:-1.0 16:0.0666667 
0.0 0.0 0.0 0.0 0.0 0.0 0.0 0.0 0.0 0.0 0.0 5.0 0.0 0.0 0.0 0.0 0.0 0.0 0.0 0.0 0.0 0.0 0.0 0.0 0.0 1:-0.6 2:-0.0666667 3:-0.333333 4:-0.333333 5:-0.733333 6:-0.0666667 7:0.6 8:-0.6 9:-0.466667 10:-0.2 11:0.6 12:0.0666667 13:-0.733333 14:0.333333 15:-0.866667 16:0.0666667 
0.0 0.0 0.0 0.0 0.0 0.0 0.0 0.0 0.0 5.0 0.0 0.0 0.0 5.0 0.9108269355910804 0.0 0.0 0.0 0.0 0.0 0.0 0.0 0.0 0.0 0.0 1:-0.466667 2:-0.466667 3:-0.2 4:-0.2 5:-0.866667 6:0.333333 7:0.0666667 8:-0.333333 9:-0.6 10:-0.333333 11:0.866667 12:0.0666667 13:-0.6 14:0.2 15:-1.0 16:0.0666667 
0.0 0.0 0.0 0.0 0.0 0.0 0.0 0.0 0.0 5.0 0.0 0.0 0.0 0.0 0.0 0.0 0.0 0.0 0.0 0.0 0.0 0.0 0.0 0.0 0.0 1:-0.6 2:-0.333333 3:-0.466667 4:-0.6 5:-0.866667 6:-0.466667 7:0.6 8:-0.6 9:-0.6 10:0.333333 11:0.466667 12:-0.0666667 13:-0.733333 14:0.466667 15:-0.866667 16:0.0666667 
0.0 0.0 0.0 0.0 0.0 0.0 0.0 0.0 0.0 0.0 0.0 0.0 0.0 0.0 0.0 0.0 0.0 0.0 0.0 2.758970648529438 0.0 0.0 0.0 0.0 0.0 1:-0.333333 2:0.466667 3:-0.0666667 4:0.0666667 5:-0.333333 6:0.2 7:0.466667 8:-0.6 9:-0.733333 10:-0.333333 11:0.333333 12:0.0666667 13:-0.333333 14:0.333333 15:-0.333333 16:-0.0666667 
0.0 0.0 5.0 0.0 0.0 0.0 0.0 0.0 0.0 0.0 0.0 5.0 0.0 0.0 0.0 0.0 0.0 0.0 0.0 0.0 0.0 0.0 5.0 0.0 0.0 1:-0.466667 2:0.0666667 3:-0.466667 4:-0.2 5:-0.733333 6:-0.6 7:0.466667 8:-0.466667 9:-0.466667 10:0.466667 11:0.6 12:0.0666667 13:-0.733333 14:0.333333 15:-0.866667 16:0.0666667 
0.0 0.0 0.0 0.0 0.0 0.0 0.0 0.0 0.0 0.0 0.0 0.0 0.0 0.0 0.0 0.0 0.0 0.0 0.0 0.0 0.0 0.0 0.0 0.0 5.0 1:0.2 2:0.6 3:-0.0666667 4:-0.0666667 5:-0.6 6:-0.0666667 7:0.466667 8:-0.2 9:-0.466667 10:0.333333 11:0.333333 12:-0.466667 13:-0.333333 14:0.6 15:-0.6 16:0.2 
0.0 0.0 0.0 0.0 0.0 0.0 0.0 0.0 0.0 5.0 5.0 0.0 0.0 0.0 0.0 0.0 0.0 0.0 0.0 0.0 0.0 0.0 0.0 0.0 0.0 1:-0.2 2:0.466667 3:-0.2 4:0.0666667 5:-0.6 6:-0.466667 7:0.466667 8:-0.6 9:-0.466667 10:0.2 11:0.466667 12:-0.0666667 13:-0.733333 14:0.333333 15:-0.866667 16:0.0666667 
5.0 0.0 0.0 5.0 0.0 5.0 5.0 5.0 5.0 5.0 0.0 2.6435813628119083 5.0 5.0 5.0 5.0 5.0 0.0 5.0 5.0 1.7856779304437589 5.0 5.0 5.0 5.0 1:-0.0666667 2:0.2 3:0.333333 4:0.0666667 5:0.466667 6:-0.0666667 7:-0.2 8:-0.333333 9:-0.333333 10:-0.0666667 11:-0.2 12:0.0666667 13:-0.0666667 14:0.333333 15:0.0666667 16:0.0666667 
0.0 0.0 0.0 0.0 0.0 0.0 0.0 0.0 0.0 5.0 0.0 0.0 0.0 0.0 0.0 0.0 0.0 0.0 0.0 0.0 0.0 0.0 0.0 0.0 0.0 1:-0.6 2:0.0666667 3:-0.333333 4:-0.2 5:-0.866667 6:0.0666667 7:0.0666667 8:-0.466667 9:-0.6 10:-0.2 11:0.866667 12:0.0666667 13:-0.6 14:0.333333 15:-1.0 16:0.0666667 
0.0 0.0 0.0 0.0 0.0 0.0 0.0 0.0 0.0 5.0 0.0 0.0 0.0 0.0 0.0 0.0 0.0 0.0 0.0 0.0 0.0 0.0 0.0 0.0 2.481778908344192 1:0.2 2:0.866667 3:0.0666667 4:0.0666667 5:-0.333333 6:-0.2 7:0.2 8:-0.466667 9:-0.466667 10:0.0666667 11:0.0666667 12:-0.333333 13:-0.333333 14:0.733333 15:-0.6 16:-0.0666667 
0.0 0.0 0.0 0.0 0.26093172237977685 5.0 5.0 0.0 0.0 0.0 0.0 0.0 0.0 0.0 0.0 5.0 0.0 5.0 3.5623998393967313 0.0 5.0 0.6557940398992577 5.0 0.0 5.0 1:-0.2 2:0.2 3:-0.2 4:-0.466667 5:-0.733333 6:-0.333333 7:0.6 8:-0.333333 9:-0.733333 10:0.466667 11:-0.0666667 12:-0.466667 13:-0.6 14:0.466667 15:-0.733333 16:-0.0666667 
0.0 0.0 0.0 0.0 0.0 0.0 0.0 0.0 0.0 5.0 0.0 0.0 0.0 0.0 1.4799782825129066 0.0 0.0 0.0 0.0 0.0 0.0 0.0 0.0 0.0 0.0 1:-0.866667 2:-0.866667 3:-0.733333 4:-0.866667 5:-1.0 6:-0.0666667 7:0.2 8:-0.466667 9:-0.733333 10:-0.0666667 11:0.733333 12:0.0666667 13:-0.733333 14:0.333333 15:-1.0 16:0.0666667 
0.0 0.0 0.0 0.0 0.0 0.0 0.0 0.0 0.0 5.0 0.0 0.0 0.0 0.0 0.0 0.0 0.0 0.0 0.0 0.0 0.0 0.0 0.0 0.0 0.0 1:-0.6 2:0.2 3:-0.333333 4:-0.0666667 5:-0.6 6:0.0666667 7:0.2 8:-0.466667 9:-0.866667 10:-0.2 11:0.6 12:0.0666667 13:-0.733333 14:0.333333 15:-1.0 16:0.0666667 
0.0 0.0 0.0 0.0 0.0 0.0 0.0 0.0 0.0 5.0 0.0 0.0 0.0 0.0 0.0 0.0 0.0 0.0 0.0 0.0 0.0 0.0 0.0 0.0 0.0 1:0.0666667 2:0.466667 3:-0.0666667 4:0.0666667 5:-0.466667 6:-0.466667 7:0.466667 8:-0.6 9:-0.466667 10:0.2 11:0.466667 12:-0.0666667 13:-0.733333 14:0.333333 15:-0.866667 16:0.0666667 
0.0 0.0 0.0 0.0 0.0 0.0 0.0 0.0 3.152466220675587 5.0 0.0 0.0 0.0 0.0 0.0 0.0 0.0 0.0 0.0 0.0 0.0 0.0 0.0 0.0 0.0 1:-0.6 2:-0.733333 3:-0.333333 4:-0.466667 5:-0.733333 6:-0.0666667 7:0.6 8:-0.733333 9:-0.6 10:-0.0666667 11:0.466667 12:0.2 13:-0.733333 14:0.333333 15:-0.866667 16:0.0666667 
0.0 0.0 0.0 0.0 0.0 0.0 2.0475812658593378 0.0 0.0 5.0 2.9865345720281335 0.0 0.0 0.0 0.0 5.0 0.0 0.0 0.0 0.0 0.0 0.0 0.0 0.0 0.0 1:0.333333 2:1.0 3:0.333333 4:0.0666667 5:-0.333333 6:-0.2 7:0.0666667 8:-0.466667 9:-0.466667 10:0.0666667 11:0.0666667 12:-0.333333 13:-0.2 14:0.6 15:-0.466667 16:-0.2 
0.0 0.0 0.0 0.0 0.0 0.0 0.0 0.0 0.0 5.0 0.0 5.0 0.0 0.0 0.0 0.0 0.0 0.0 0.0 0.0 0.0 0.0 0.0 0.0 0.0 1:-0.466667 2:0.466667 3:-0.2 4:0.0666667 5:-0.6 6:-0.0666667 7:0.466667 8:-0.6 9:-0.333333 10:0.0666667 11:0.6 12:0.0666667 13:-0.6 14:0.333333 15:-0.866667 16:0.0666667 
0.0 0.0 1.387587670519259 0.0 0.0 0.0 0.0 0.0 0.0 0.0 0.0 0.0 0.0 0.0 0.0 0.0 0.0 0.0 0.0 0.0 0.0 0.0 0.0 0.0 0.0 1:-0.0666667 2:0.333333 3:-0.0666667 4:0.0666667 5:-0.6 6:-0.6 7:0.466667 8:-0.466667 9:-0.466667 10:0.333333 11:0.6 12:0.0666667 13:-0.733333 14:0.333333 15:-0.866667 16:0.0666667 
0.0 0.0 5.0 0.0 0.0 0.0 0.0 0.0 0.0 0.0 0.0 3.6031176834657614 0.0 0.0 0.0 0.0 0.0 0.0 0.0 0.0 0.0 0.0 5.0 0.0 0.0 1:-0.333333 2:0.2 3:-0.333333 4:-0.2 5:-0.6 6:-0.733333 7:0.466667 8:-0.466667 9:-0.466667 10:0.466667 11:0.6 12:0.0666667 13:-0.733333 14:0.333333 15:-0.866667 16:-0.0666667 
0.0 0.0 0.0 0.0 0.0 0.0 0.0 0.0 0.0 0.0 0.0 0.0 0.0 0.0 0.0 0.0 0.0 0.0 0.0 0.0 0.0 0.0 5.0 0.0 0.0 1:-0.6 2:-0.333333 3:-0.466667 4:-0.466667 5:-0.866667 6:-0.466667 7:0.6 8:-0.6 9:-0.6 10:0.333333 11:0.466667 12:-0.0666667 13:-0.733333 14:0.333333 15:-0.866667 16:0.0666667 
0.0 0.0 0.0 0.0 0.0 0.0 0.0 0.0 0.0 1.5393344290091877 0.0 0.0 0.0 0.0 0.0 0.0 0.0 0.0 0.0 0.0 0.0 0.0 0.0 0.0 0.0 1:0.0666667 2:0.6 3:-0.2 4:-0.0666667 5:-0.6 6:0.0666667 7:0.333333 8:-0.333333 9:-0.333333 10:0.0666667 11:0.333333 12:-0.333333 13:-0.333333 14:0.6 15:-0.6 16:-0.0666667 
0.0 0.0 0.0 0.0 0.0 0.0 0.0 0.0 0.0 0.0 0.0 5.0 0.0 0.0 0.0 0.0 0.0 0.0 0.0 0.0 0.0 0.0 5.0 0.0 0.0 1:-0.6 2:-0.333333 3:-0.466667 4:-0.6 5:-0.866667 6:-0.466667 7:0.6 8:-0.466667 9:-0.466667 10:0.466667 11:0.466667 12:-0.0666667 13:-0.733333 14:0.466667 15:-0.866667 16:0.0666667 
0.0 0.4487739435572588 0.0 0.0 0.0 0.0 0.0 0.0 0.0 5.0 0.0 0.0 0.0 2.680405094335191 0.0 0.0 0.0 0.0 0.0 0.0 0.0 0.0 0.0 0.0 0.0 1:-0.866667 2:-1.0 3:-0.733333 4:-0.866667 5:-1.0 6:0.0666667 7:0.2 8:-0.6 9:-0.733333 10:-0.0666667 11:0.6 12:0.0666667 13:-0.733333 14:0.333333 15:-1.0 16:0.0666667 
5.0 0.0 5.0 5.0 0.0 5.0 5.0 5.0 0.0 5.0 5.0 5.0 0.13053327265470507 5.0 5.0 0.0 5.0 0.0 5.0 5.0 5.0 0.0 5.0 5.0 5.0 1:-0.2 2:0.2 3:0.0666667 4:0.0666667 5:0.333333 6:-0.0666667 7:-0.2 8:-0.333333 9:-0.333333 10:-0.0666667 11:-0.2 12:0.0666667 13:-0.0666667 14:0.333333 15:0.0666667 16:0.2 
0.0 0.0 0.0 0.0 0.0 0.0 0.0 0.0 0.0 0.0 0.0 0.0 0.0 0.0 0.0 0.0 0.0 0.0 0.0 5.0 0.0 0.0 0.0 0.0 0.0 1:-0.333333 2:0.2 3:-0.466667 4:-0.466667 5:-0.733333 6:0.2 7:0.333333 8:-0.466667 9:-0.466667 10:-0.2 11:0.333333 12:-0.2 13:-0.466667 14:0.466667 15:-0.6 16:-0.0666667 
0.0 0.0 0.0 0.0 0.0 0.0 0.0 0.0 0.0 5.0 0.0 0.0 0.0 0.0 0.0 0.0 0.0 0.0 0.0 0.0 0.0 0.0 0.0 0.0 0.0 1:-0.466667 2:-0.333333 3:-0.0666667 4:0.0666667 5:-0.733333 6:-0.0666667 7:0.0666667 8:-0.466667 9:-0.6 10:-0.0666667 11:0.866667 12:0.0666667 13:-0.6 14:0.2 15:-1.0 16:0.0666667 
5.0 0.0 5.0 5.0 0.0 5.0 5.0 5.0 5.0 0.0 0.0 0.0 0.0 5.0 5.0 5.0 5.0 0.0 0.0 5.0 5.0 5.0 0.0 0.0 5.0 1:-0.466667 2:0.466667 3:-0.2 4:0.0666667 5:0.0666667 6:-0.0666667 7:-0.333333 8:-0.333333 9:-0.733333 10:0.0666667 11:-0.0666667 12:0.0666667 13:-0.2 14:0.2 15:-0.333333 16:0.0666667 
0.0 0.0 0.0 0.0 0.0 0.0 0.0 0.0 5.0 5.0 0.0 5.0 0.0 0.0 0.0 0.0 0.0 0.0 0.0 0.0 0.0 0.0 0.0 0.0 0.0 1:-0.733333 2:-0.2 3:-0.466667 4:-0.466667 5:-0.733333 6:0.0666667 7:0.466667 8:-0.733333 9:-0.6 10:-0.333333 11:0.466667 12:0.2 13:-0.733333 14:0.333333 15:-1.0 16:0.0666667 
0.0 0.0 0.0 2.1927799027009054 1.9524240249435512 0.0 0.0 0.0 5.0 0.0 5.0 0.0 0.0 0.0 0.0 0.0 0.0 0.0 0.0 0.0 0.0 0.0 0.0 0.0 0.0 1:-0.2 2:0.333333 3:-0.2 4:0.0666667 5:-0.6 6:-0.466667 7:0.466667 8:-0.733333 9:-0.466667 10:0.2 11:0.466667 12:-0.0666667 13:-0.6 14:0.2 15:-0.866667 16:-0.0666667 
0.0 0.0 0.0 0.0 0.0 0.0 5.0 0.0 0.0 0.0 0.0 0.0 0.0 0.0 0.0 5.0 0.0 0.0 0.0 0.0 0.0 0.0 0.0 0.0 0.0 1:0.0666667 2:0.333333 3:0.0666667 4:-0.0666667 5:-0.6 6:-0.6 7:0.466667 8:-0.333333 9:-0.333333 10:0.6 11:0.6 12:-0.0666667 13:-0.6 14:0.333333 15:-0.866667 16:0.0666667 
0.0 0.0 0.0 0.0 0.0 0.0 0.0 0.0 0.0 2.393752709816416 0.0 0.0 0.0 0.0 0.0 0.0 0.0 0.0 0.0 0.0 0.0 0.0 0.0 0.0 0.0 1:-0.333333 2:0.466667 3:-0.0666667 4:0.2 5:-0.466667 6:0.2 7:0.2 8:-0.466667 9:-0.733333 10:-0.333333 11:0.733333 12:0.0666667 13:-0.6 14:0.333333 15:-1.0 16:0.0666667 
0.0 0.0 0.0 0.0 0.0 0.0 0.0 0.0 0.0 0.0 0.0 0.0 0.0 0.0 0.0 0.0 0.0 0.0 0.0 0.0 0.0 0.0 5.0 0.0 0.0 1:-0.333333 2:-0.0666667 3:-0.333333 4:-0.333333 5:-0.733333 6:-0.6 7:0.6 8:-0.333333 9:-0.466667 10:0.6 11:0.6 12:-0.0666667 13:-0.733333 14:0.333333 15:-0.866667 16:0.0666667 
0.0 0.0 0.0 0.0 0.0 0.0 0.0 0.0 0.0 0.0 0.0 0.0 0.0 0.0 3.688841153651714 0.0 0.0 0.0 0.0 0.0 0.0 0.0 0.0 0.0 0.0 1:-0.6 2:0.333333 3:-0.333333 4:0.0666667 5:-0.733333 6:0.0666667 7:0.0666667 8:-0.466667 9:-0.6 10:-0.2 11:0.866667 12:0.0666667 13:-0.6 14:0.2 15:-1.0 16:0.0666667 
0.0 0.0 0.0 0.0 0.0 0.0 0.0 0.0 0.0 5.0 0.0 0.0 0.0 0.0 0.0 0.0 0.0 0.0 0.0 0.0 0.0 0.0 0.0 0.0 0.0 1:-0.466667 2:0.0666667 3:-0.2 4:-0.2 5:-0.6 6:-0.0666667 7:0.466667 8:-0.733333 9:-0.6 10:-0.333333 11:0.466667 12:0.2 13:-0.733333 14:0.333333 15:-0.866667 16:0.0666667 
0.0 0.0 0.0 0.0 0.0 0.0 0.0 0.0 0.0 5.0 0.0 0.0 0.0 0.0 0.0 0.0 0.0 0.0 0.0 0.0 0.0 0.0 0.0 0.0 0.0 1:-0.6 2:0.2 3:-0.333333 4:-0.0666667 5:-0.6 6:-0.0666667 7:0.2 8:-0.466667 9:-0.733333 10:-0.0666667 11:0.733333 12:0.0666667 13:-0.733333 14:0.333333 15:-1.0 16:0.0666667 
0.0 0.0 0.0 0.0 0.0 0.0 0.0 0.0 0.0 5.0 0.0 0.0 0.0 0.0 0.0 0.0 0.0 0.0 0.0 0.0 0.0 0.0 0.0 0.0 0.0 1:-0.6 2:0.333333 3:-0.333333 4:0.0666667 5:-0.733333 6:-0.0666667 7:0.0666667 8:-0.466667 9:-0.6 10:-0.0666667 11:0.866667 12:0.0666667 13:-0.6 14:0.333333 15:-1.0 16:0.0666667 
0.0 0.0 0.0 0.0 0.0 0.0 0.0 0.0 0.0 5.0 0.0 0.0 0.0 0.0 0.0 0.0 0.0 0.0 0.0 0.0 0.0 0.0 0.0 0.0 0.0 1:-0.333333 2:0.0666667 3:-0.333333 4:-0.2 5:-0.6 6:-0.466667 7:0.466667 8:-0.733333 9:-0.6 10:0.0666667 11:0.333333 12:-0.0666667 13:-0.6 14:0.6 15:-0.866667 16:-0.0666667 
5.0 0.0 0.0 5.0 0.0 5.0 5.0 5.0 5.0 0.0 0.0 0.0 5.0 5.0 5.0 5.0 5.0 0.0 0.0 5.0 5.0 5.0 5.0 5.0 5.0 1:-0.333333 2:0.2 3:-0.0666667 4:0.0666667 5:0.2 6:-0.0666667 7:-0.0666667 8:-0.333333 9:-0.466667 10:-0.0666667 11:-0.2 12:0.0666667 13:-0.0666667 14:0.2 15:-0.0666667 16:0.0666667 
0.0 0.0 0.0 0.0 0.0 0.0 0.0 0.0 0.0 5.0 0.0 0.0 0.0 0.0 0.0 0.0 0.0 0.0 0.0 0.0 0.0 0.0 0.0 0.0 0.0 1:-0.333333 2:0.333333 3:-0.333333 4:0.0666667 5:-0.466667 6:-0.6 7:0.466667 8:-0.733333 9:-0.6 10:0.2 11:0.466667 12:0.0666667 13:-0.733333 14:0.466667 15:-0.866667 16:0.0666667 
0.0 0.0 0.0 0.0 0.0 0.0 0.0 0.0 0.0 5.0 0.0 5.0 0.0 0.0 0.0 0.0 0.0 0.0 0.0 0.0 0.0 0.0 0.0 0.0 0.0 1:-0.866667 2:-0.6 3:-0.733333 4:-0.733333 5:-0.866667 6:-0.0666667 7:0.6 8:-0.6 9:-0.6 10:0.0666667 11:0.466667 12:0.0666667 13:-0.733333 14:0.466667 15:-0.866667 16:0.0666667 
0.0 0.0 0.0 0.0 0.0 0.0 0.0 0.0 5.0 0.0 0.0 0.0 0.0 0.0 0.0 0.0 0.0 0.0 0.0 0.0 0.0 0.0 0.0 0.0 0.0 1:-0.333333 2:0.2 3:-0.0666667 4:-0.0666667 5:-0.6 6:0.2 7:0.6 8:-0.6 9:-0.466667 10:-0.466667 11:0.466667 12:0.2 13:-0.6 14:0.333333 15:-0.866667 16:0.0666667 
4.193640067576171 0.0 5.0 5.0 0.0 0.0 0.0 5.0 0.0 0.0 0.0 0.0 0.0 0.0 0.0 5.0 5.0 0.0 0.0 0.0 5.0 0.0 0.0 0.0 0.0 1:0.0666667 2:1.0 3:0.0666667 4:0.0666667 5:-0.333333 6:-0.333333 7:0.0666667 8:-0.333333 9:-0.466667 10:0.0666667 11:-0.0666667 12:-0.2 13:-0.2 14:0.6 15:-0.6 16:0.0666667 
-0.0 0.0 0.0 0.0 0.0 0.0 0.0 5.0 0.0 0.0 0.0 0.0 0.0 0.0 0.0 0.0 0.0 0.0 0.0 2.3196671756683696 5.0 0.0 0.0 0.0 0.0 1:-0.733333 2:-0.2 3:-0.6 4:-0.466667 5:-0.733333 6:-0.466667 7:-0.6 8:0.0666667 9:-0.0666667 10:-0.866667 11:-0.733333 12:-0.466667 13:-0.866667 14:-0.2 15:-0.866667 16:-0.2 
-5.0 0.0 2.077048652547216 0.0 0.0 0.0 4.4049998729803415 0.0 1.7941625212040997 5.0 0.0 5.0 5.0 0.0 5.0 0.7655756074556497 5.0 0.0 0.0 5.0 0.0 3.8071345417606204 5.0 5.0 4.03706193747241 1:-0.466667 2:0.466667 3:-0.2 4:0.0666667 5:0.2 6:-0.0666667 7:-0.0666667 8:-0.6 9:-0.333333 10:-0.0666667 11:-0.0666667 12:0.333333 13:-0.0666667 14:0.466667 15:0.0666667 16:-0.333333 
-5.0 5.0 2.542284909959603 5.0 5.0 5.0 5.0 5.0 0.0 0.0 5.0 1.7250655036088536 0.0 5.0 0.0 0.0 5.0 5.0 5.0 5.0 0.0 0.0 5.0 5.0 5.0 1:-0.466667 2:-0.0666667 3:-0.2 4:-0.2 5:-0.333333 6:-0.0666667 7:-0.0666667 8:-0.466667 9:-0.333333 10:-0.0666667 11:-0.2 12:-0.0666667 13:-0.6 14:0.2 15:0.0666667 16:0.466667 
-0.0 0.0 0.0 0.0 0.0 0.0 0.0 0.0 0.0 0.0 5.0 0.0 0.0 0.0 0.0 0.0 0.0 0.0 0.0 0.0 0.0 0.0 0.0 5.0 0.0 1:-0.6 2:-0.2 3:-0.466667 4:-0.466667 5:-0.733333 6:-0.2 7:-0.333333 8:-0.866667 9:0.2 10:-0.0666667 11:-0.733333 12:0.333333 13:-1.0 14:-0.0666667 15:-0.6 16:0.0666667 
-0.0 0.0 0.0 0.0 0.0 0.0 0.0 5.0 5.0 0.0 0.0 0.0 0.0 5.0 0.0 0.0 0.0 0.0 0.61216338210272 0.0 5.0 0.0 0.0 0.0 0.0 1:-0.6 2:0.0666667 3:-0.466667 4:-0.2 5:-0.6 6:-0.0666667 7:-0.6 8:-0.466667 9:-0.2 10:-0.2 11:-0.733333 12:-0.0666667 13:-0.866667 14:-0.2 15:-0.733333 16:-0.0666667 
-3.5853903335002064 0.0 5.0 5.0 0.0 0.0 5.0 5.0 0.0 0.0 4.449521352254781 5.0 5.0 0.0 5.0 5.0 5.0 0.0 0.0 0.0 5.0 0.0 0.0 5.0 0.0 1:-0.6 2:0.0666667 3:-0.333333 4:-0.2 5:-0.2 6:-0.2 7:-0.0666667 8:-0.6 9:-0.2 10:0.0666667 11:-0.0666667 12:0.466667 13:-0.2 14:0.333333 15:-0.333333 16:-0.2 
-0.0 0.0 0.0 0.0 0.0 0.0 0.0 5.0 0.0 0.0 0.0 0.0 0.0 0.0 0.0 0.0 0.0 0.0 0.0 0.0 0.0 0.0 0.0 0.0 0.0 1:-0.733333 2:-0.6 3:-0.6 4:-0.733333 5:-0.866667 6:-0.333333 7:-0.466667 8:-0.333333 9:0.0666667 10:-0.6 11:-0.733333 12:-0.2 13:-0.866667 14:-0.0666667 15:-0.866667 16:-0.2 
-0.0 0.0 0.0 0.0 0.0 0.0 0.0 5.0 0.0 0.0 0.0 0.0 0.0 5.0 0.0 0.0 0.0 0.0 5.0 0.0 5.0 0.0 0.0 5.0 0.0 1:-0.333333 2:0.333333 3:-0.466667 4:-0.333333 5:-0.733333 6:0.2 7:-0.6 8:-0.466667 9:-0.466667 10:0.6 11:-0.466667 12:0.733333 13:-0.733333 14:-0.2 15:-0.2 16:0.2 
-0.0 5.0 0.0 0.0 5.0 0.0 0.0 5.0 0.0 5.0 5.0 0.0 0.0 5.0 0.0 0.0 0.0 5.0 5.0 5.0 0.0 0.0 0.0 5.0 0.0 1:-0.466667 2:0.0666667 3:-0.333333 4:-0.0666667 5:-0.333333 6:0.0666667 7:-0.2 8:-0.466667 9:-0.333333 10:-0.2 11:-0.0666667 12:0.0666667 13:-0.6 14:0.2 15:-0.0666667 16:0.2 
-0.0 3.5368316479904114 0.0 0.0 0.0 0.0 0.0 0.0 0.0 0.0 0.17981313801803592 0.0 0.0 0.0 0.0 0.0 0.0 0.0 0.0 0.0 0.0 0.0 0.0 5.0 0.0 1:-0.333333 2:0.466667 3:-0.0666667 4:0.0666667 5:-0.333333 6:-0.2 7:-0.333333 8:-1.0 9:0.2 10:0.2 11:-0.6 12:0.466667 13:-1.0 14:-0.0666667 15:-0.6 16:0.0666667 
-0.0 0.0 5.0 5.0 0.0 4.850365662117388 5.0 5.0 0.0 0.0 5.0 5.0 0.0 5.0 5.0 0.0 5.0 0.0 5.0 5.0 5.0 0.0 0.0 5.0 0.0 1:-0.466667 2:-0.2 3:-0.2 4:-0.466667 5:-0.466667 6:-0.2 7:-0.2 8:-0.0666667 9:-0.2 10:-0.2 11:-0.2 12:0.2 13:-0.733333 14:0.0666667 15:-0.333333 16:0.333333 
-0.6598052173498774 0.0 0.0 0.0 0.0 5.0 5.0 5.0 5.0 5.0 0.0 0.0 0.47239791853356994 4.647554865209252 5.0 5.0 5.0 0.0 0.0 1.3636109509190821 5.0 0.0 0.0 0.0 4.282444514421593 1:-0.6 2:-0.0666667 3:-0.333333 4:-0.333333 5:-0.6 6:-0.466667 7:-0.6 8:0.0666667 9:-0.2 10:-0.866667 11:-0.6 12:-0.6 13:-0.866667 14:-0.2 15:-1.0 16:-0.2 
-0.0 0.0 0.0 5.0 0.0 0.0 0.0 0.0 0.0 0.0 5.0 0.0 0.0 0.0 0.0 0.0 0.0 0.0 0.0 0.0 0.0 0.0 0.0 0.0 0.0 1:-0.866667 2:-0.466667 3:-0.6 4:-0.6 5:-0.866667 6:-0.2 7:-0.333333 8:-0.866667 9:-0.2 10:0.0666667 11:-0.6 12:0.333333 13:-0.866667 14:-0.0666667 15:-0.733333 16:0.2 
-0.0 5.0 0.0 5.0 5.0 0.0 5.0 5.0 0.0 5.0 5.0 5.0 0.0 5.0 0.0 0.0 5.0 5.0 5.0 5.0 0.0 0.0 5.0 5.0 5.0 1:-0.466667 2:-0.333333 3:-0.333333 4:-0.466667 5:-0.466667 6:0.0666667 7:-0.2 8:-0.466667 9:-0.333333 10:-0.0666667 11:-0.0666667 12:0.0666667 13:-0.733333 14:0.0666667 15:-0.0666667 16:0.333333 
-0.0 5.0 0.0 0.0 5.0 5.0 5.0 5.0 5.0 0.0 0.0 0.0 0.0 5.0 0.2745675369314846 5.0 0.0 0.0 5.0 5.0 5.0 0.0 5.0 0.0 5.0 1:-0.2 2:0.866667 3:-0.2 4:0.0666667 5:-0.466667 6:0.333333 7:-0.6 8:-0.466667 9:-0.6 10:0.6 11:-0.2 12:0.333333 13:-0.466667 14:0.2 15:-0.2 16:0.2 
-0.0 0.0 0.0 2.0136604711332127 0.0 0.0 5.0 0.0 0.0 0.0 0.0 0.0 0.0 0.0 0.0 0.0 5.0 0.0 0.0 0.0 0.0 0.0 0.0 0.0 0.0 1:-0.6 2:-0.733333 3:-0.466667 4:-0.6 5:-0.733333 6:-0.466667 7:-0.466667 8:-0.333333 9:-0.0666667 10:-0.733333 11:-0.733333 12:-0.333333 13:-0.866667 14:-0.2 15:-0.866667 16:-0.2 
-0.0 0.0 0.0 0.0 0.0 0.0 1.003228473670568 0.0 0.0 0.0 0.0 0.0 0.0 5.0 0.0 0.0 5.0 0.0 0.0 0.0 0.0 0.0 0.0 0.0 0.0 1:-0.733333 2:-0.733333 3:-0.6 4:-0.466667 5:-0.733333 6:-0.333333 7:-0.466667 8:-0.333333 9:-0.0666667 10:-0.733333 11:-0.733333 12:-0.333333 13:-0.866667 14:-0.2 15:-0.866667 16:-0.2 
-5.0 0.0 5.0 5.0 0.0 0.0 0.0 0.0 0.0 0.0 0.0 5.0 5.0 2.947897216563734 0.0 0.0 0.0 0.0 0.0 0.0 0.0 0.0 0.0 5.0 0.0 1:-0.2 2:0.466667 3:0.2 4:0.0666667 5:0.466667 6:-0.0666667 7:-0.0666667 8:-0.6 9:-0.2 10:-0.2 11:-0.0666667 12:0.466667 13:-0.2 14:0.466667 15:0.2 16:-0.0666667 
-0.0 0.0 5.0 5.0 0.0 0.0 0.0 5.0 0.0 0.0 0.0 0.0 0.0 0.5050892420372326 1.9818306147218034 0.0 0.0 0.0 5.0 0.0 0.0 0.0 0.0 5.0 0.0 1:0.2 2:0.866667 3:0.2 4:0.0666667 5:-0.333333 6:-0.0666667 7:-0.466667 8:-0.466667 9:-0.333333 10:0.6 11:0.0666667 12:0.6 13:-0.466667 14:0.2 15:-0.2 16:0.333333 
-0.0 0.0 5.0 5.0 0.0 5.0 5.0 5.0 0.0 0.0 5.0 5.0 0.0 5.0 5.0 0.0 5.0 0.0 5.0 5.0 5.0 0.0 0.0 5.0 0.0 1:-0.466667 2:-0.0666667 3:-0.333333 4:-0.333333 5:-0.466667 6:-0.0666667 7:-0.2 8:0.0666667 9:-0.2 10:-0.333333 11:-0.2 12:0.0666667 13:-0.6 14:-0.0666667 15:-0.333333 16:0.466667 
-0.0 5.0 5.0 0.0 5.0 2.8767904597033924 0.0 5.0 2.946820426258665 5.0 5.0 5.0 0.0 5.0 0.0 0.0 5.0 5.0 5.0 5.0 5.0 0.0 0.0 5.0 0.0 1:-0.333333 2:0.0666667 3:-0.2 4:-0.0666667 5:-0.333333 6:0.0666667 7:-0.2 8:-0.333333 9:-0.333333 10:-0.0666667 11:-0.0666667 12:0.2 13:-0.6 14:0.2 15:0.0666667 16:0.0666667 
-0.0 0.0 0.0 3.820660725992148 0.0 0.0 0.0 0.0 0.0 0.0 0.0 0.0 0.0 0.0 0.0 0.0 0.0 0.0 0.0 0.0 0.0 0.0 0.0 0.0 0.0 1:-0.866667 2:-0.6 3:-0.733333 4:-0.866667 5:-1.0 6:-0.2 7:-0.466667 8:-0.866667 9:-0.0666667 10:0.0666667 11:-0.733333 12:0.333333 13:-1.0 14:-0.0666667 15:-0.733333 16:0.2 
-5.0 0.0 5.0 5.0 0.0 5.0 5.0 5.0 0.0 1.696560901456449 5.0 5.0 5.0 5.0 5.0 5.0 5.0 0.0 5.0 5.0 5.0 5.0 5.0 5.0 5.0 1:-0.0666667 2:0.333333 3:0.2 4:0.0666667 5:-0.0666667 6:-0.2 7:-0.0666667 8:-0.0666667 9:-0.0666667 10:-0.2 11:-0.2 12:0.0666667 13:-0.2 14:0.0666667 15:-0.333333 16:0.333333 
-5.0 5.0 5.0 5.0 0.0 0.0 5.0 5.0 5.0 5.0 5.0 5.0 0.0 0.0 5.0 5.0 5.0 0.0 0.0 0.0 0.0 0.0 0.0 5.0 0.0 1:-0.6 2:-0.0666667 3:-0.466667 4:-0.333333 5:-0.333333 6:-0.0666667 7:0.0666667 8:-0.6 9:-0.333333 10:-0.333333 11:-0.0666667 12:0.333333 13:-0.466667 14:0.466667 15:-0.333333 16:-0.2 
-0.0 0.0 0.0 0.0 0.0 0.0 0.0 0.0 0.0 0.0 0.0 0.0 0.0 0.0 5.0 0.0 0.0 0.0 0.0 0.0 0.0 0.0 0.0 0.0 0.0 1:-0.6 2:-0.333333 3:-0.6 4:-0.6 5:-0.733333 6:-0.466667 7:-0.6 8:-0.333333 9:-0.2 10:-0.733333 11:-0.733333 12:-0.333333 13:-0.866667 14:-0.2 15:-1.0 16:-0.2 
-0.0 0.0 0.0 0.0 0.0 5.0 0.0 0.0 0.0 2.251747720437697 0.0 0.0 0.0 0.0 0.0 0.0 0.0 0.0 5.0 5.0 0.0 0.0 0.0 0.0 0.0 1:-0.6 2:-0.0666667 3:-0.466667 4:-0.333333 5:-0.733333 6:-0.333333 7:-0.733333 8:-0.0666667 9:0.0666667 10:-0.866667 11:-0.733333 12:-0.733333 13:-0.866667 14:-0.2 15:-0.866667 16:-0.333333 
-0.34492512051926455 0.0 0.0 0.0 0.0 0.0 0.0 0.0 0.0 0.7025352900153562 0.0 0.0 0.0 0.0 0.0 0.0 0.0 0.0 0.0 0.0 0.0 3.263121512555125 0.0 0.0 0.0 1:-0.866667 2:-1.0 3:-0.866667 4:-1.0 5:-1.0 6:-0.6 7:-0.866667 8:-0.2 9:-0.466667 10:-0.866667 11:-0.6 12:-0.466667 13:-1.0 14:0.0666667 15:-1.0 16:0.0666667 
-0.0 0.0 5.0 5.0 0.0 0.0 0.0 0.0 0.0 0.0 0.0 0.0 0.0 0.0 0.0 0.0 0.0 0.0 5.0 0.0 0.0 0.0 0.0 5.0 0.0 1:-0.2 2:0.866667 3:-0.2 4:0.0666667 5:-0.466667 6:0.0666667 7:-0.466667 8:-0.6 9:-0.466667 10:0.6 11:0.0666667 12:0.466667 13:-0.466667 14:0.2 15:-0.2 16:0.333333 
-0.0 0.0 0.0 5.0 0.0 5.0 5.0 5.0 5.0 0.0 0.0 0.0 5.0 0.0 5.0 5.0 5.0 0.0 0.0 0.0 5.0 0.0 0.0 0.0 0.0 1:-0.6 2:-0.0666667 3:-0.466667 4:-0.333333 5:-0.6 6:-0.333333 7:-0.333333 8:-0.466667 9:-0.0666667 10:-0.6 11:-0.733333 12:-0.2 13:-0.466667 14:-0.2 15:-0.866667 16:-0.2 
-0.0 0.0 0.0 0.0 0.0 0.0 0.0 0.0 0.0 0.0 0.0 0.0 0.0 0.0 0.0 0.0 0.0 5.0 0.0 0.0 0.0 0.0 0.0 3.892463212341224 0.0 1:-0.733333 2:-0.333333 3:-0.466667 4:-0.6 5:-0.733333 6:-0.0666667 7:-0.466667 8:-0.866667 9:0.0666667 10:0.0666667 11:-0.733333 12:0.333333 13:-1.0 14:-0.0666667 15:-0.6 16:0.0666667 
-0.0 0.0 0.0 0.0 3.9000103605471517 5.0 5.0 0.14902240238580583 5.0 0.0 0.0 0.0 0.0 0.0 0.0 0.0 0.0 0.0 5.0 0.0 0.8698125060463132 0.0 0.0 0.0 0.0 1:-0.6 2:0.2 3:-0.333333 4:-0.2 5:-0.6 6:0.0666667 7:-0.6 8:-0.6 9:-0.2 10:0.0666667 11:-0.733333 12:0.0666667 13:-0.866667 14:-0.2 15:-0.733333 16:0.0666667 
-0.0 0.0 0.0 0.0 0.0 0.0 0.0 0.0 0.0 0.0 0.0 0.0 0.0 0.0 0.0 0.0 0.0 0.0 5.0 0.0 0.0 0.0 0.0 0.0 0.0 1:-0.333333 2:0.466667 3:-0.0666667 4:0.0666667 5:-0.466667 6:-0.0666667 7:-0.6 8:-0.733333 9:0.0666667 10:-0.0666667 11:-0.733333 12:0.0666667 13:-0.866667 14:-0.2 15:-0.6 16:-0.0666667 
-0.0 0.0 3.5505849280557684 0.0 0.0 0.0 0.0 5.0 0.0 0.0 0.0 0.0 0.0 5.0 0.0 0.0 0.0 0.0 5.0 0.0 0.0 0.0 0.0 0.0 0.0 1:0.2 2:0.733333 3:-0.0666667 4:-0.0666667 5:-0.466667 6:0.2 7:-0.733333 8:-0.466667 9:-0.466667 10:0.6 11:-0.333333 12:0.733333 13:-0.733333 14:-0.0666667 15:-0.2 16:0.2 
-5.0 0.0 5.0 5.0 5.0 0.0 5.0 5.0 5.0 5.0 5.0 0.0 0.0 5.0 0.0 0.0 5.0 0.0 5.0 5.0 0.0 0.0 5.0 5.0 5.0 1:-0.466667 2:0.2 3:-0.2 4:0.0666667 5:-0.2 6:-0.0666667 7:-0.2 8:-0.333333 9:-0.466667 10:-0.0666667 11:-0.0666667 12:0.0666667 13:-0.6 14:0.0666667 15:0.0666667 16:0.333333 
-0.0 0.0 0.0 0.0 0.0 0.0 0.0 0.0 0.0 0.0 0.0 0.0 0.0 0.0 0.0 0.0 0.0 1.5745950778740443 5.0 0.0 0.0 0.0 0.0 5.0 0.0 1:-0.466667 2:0.333333 3:-0.466667 4:-0.333333 5:-0.733333 6:0.333333 7:-0.6 8:-0.733333 9:-0.333333 10:0.6 11:-0.6 12:0.466667 13:-0.733333 14:0.2 15:-0.466667 16:0.333333 
-5.0 5.0 5.0 5.0 0.0 0.0 5.0 5.0 5.0 1.2305791739303213 5.0 5.0 0.0 5.0 5.0 5.0 5.0 0.0 1.6055672594172836 5.0 5.0 0.0 5.0 5.0 0.0 1:-0.6 2:0.2 3:-0.333333 4:-0.0666667 5:-0.0666667 6:-0.0666667 7:0.0666667 8:-0.6 9:-0.333333 10:-0.2 11:-0.2 12:0.333333 13:-0.2 14:0.466667 15:-0.0666667 16:-0.333333 
-5.0 5.0 5.0 5.0 5.0 5.0 5.0 5.0 5.0 5.0 5.0 5.0 5.0 5.0 5.0 5.0 5.0 1.757037396643633 5.0 5.0 5.0 5.0 5.0 5.0 5.0 1:-0.466667 2:0.0666667 3:-0.2 4:-0.2 5:-0.0666667 6:0.0666667 7:-0.0666667 8:-0.6 9:-0.333333 10:-0.0666667 11:-0.0666667 12:0.2 13:-0.0666667 14:0.2 15:-0.2 16:-0.2 
-0.0 5.0 0.0 0.0 0.0 0.0 0.0 0.0 0.0 0.0 0.0 0.0 0.0 0.0 0.0 0.0 0.0 0.0 0.0 0.0 0.0 0.0 0.0 0.0 0.0 1:-0.466667 2:0.2 3:-0.333333 4:-0.2 5:-0.733333 6:-0.0666667 7:-0.466667 8:-1.0 9:0.2 10:0.2 11:-0.733333 12:0.333333 13:-1.0 14:-0.0666667 15:-0.733333 16:0.0666667 
-5.0 0.06126232984252992 5.0 5.0 5.0 5.0 5.0 0.0 5.0 5.0 5.0 5.0 5.0 5.0 5.0 5.0 5.0 5.0 5.0 5.0 5.0 5.0 5.0 5.0 3.7341098780911346 1:-0.466667 2:0.2 3:-0.2 4:-0.0666667 5:-0.0666667 6:-0.0666667 7:-0.0666667 8:-0.6 9:-0.2 10:0.0666667 11:-0.0666667 12:0.333333 13:-0.0666667 14:0.333333 15:-0.0666667 16:-0.333333 
